{"learner":{"attributes":{"scikit_learn":"{\"_estimator_type\": \"classifier\"}"},"feature_names":["CreditScore","Geography","Gender","Age","Tenure","Balance","NumOfProducts","HasCrCard","IsActiveMember","EstimatedSalary"],"feature_types":["int","int","int","int","int","float","int","int","int","float"],"gradient_booster":{"model":{"cats":{"enc":[],"feature_segments":[],"sorted_idx":[]},"gbtree_model_param":{"num_parallel_tree":"1","num_trees":"300"},"iteration_indptr":[0,1,2,3,4,5,6,7,8,9,10,11,12,13,14,15,16,17,18,19,20,21,22,23,24,25,26,27,28,29,30,31,32,33,34,35,36,37,38,39,40,41,42,43,44,45,46,47,48,49,50,51,52,53,54,55,56,57,58,59,60,61,62,63,64,65,66,67,68,69,70,71,72,73,74,75,76,77,78,79,80,81,82,83,84,85,86,87,88,89,90,91,92,93,94,95,96,97,98,99,100,101,102,103,104,105,106,107,108,109,110,111,112,113,114,115,116,117,118,119,120,121,122,123,124,125,126,127,128,129,130,131,132,133,134,135,136,137,138,139,140,141,142,143,144,145,146,147,148,149,150,151,152,153,154,155,156,157,158,159,160,161,162,163,164,165,166,167,168,169,170,171,172,173,174,175,176,177,178,179,180,181,182,183,184,185,186,187,188,189,190,191,192,193,194,195,196,197,198,199,200,201,202,203,204,205,206,207,208,209,210,211,212,213,214,215,216,217,218,219,220,221,222,223,224,225,226,227,228,229,230,231,232,233,234,235,236,237,238,239,240,241,242,243,244,245,246,247,248,249,250,251,252,253,254,255,256,257,258,259,260,261,262,263,264,265,266,267,268,269,270,271,272,273,274,275,276,277,278,279,280,281,282,283,284,285,286,287,288,289,290,291,292,293,294,295,296,297,298,299,300],"tree_info":[0,0,0,0,0,0,0,0,0,0,0,0,0,0,0,0,0,0,0,0,0,0,0,0,0,0,0,0,0,0,0,0,0,0,0,0,0,0,0,0,0,0,0,0,0,0,0,0,0,0,0,0,0,0,0,0,0,0,0,0,0,0,0,0,0,0,0,0,0,0,0,0,0,0,0,0,0,0,0,0,0,0,0,0,0,0,0,0,0,0,0,0,0,0,0,0,0,0,0,0,0,0,0,0,0,0,0,0,0,0,0,0,0,0,0,0,0,0,0,0,0,0,0,0,0,0,0,0,0,0,0,0,0,0,0,0,0,0,0,0,0,0,0,0,0,0,0,0,0,0,0,0,0,0,0,0,0,0,0,0,0,0,0,0,0,0,0,0,0,0,0,0,0,0,0,0,0,0,0,0,0,0,0,0,0,0,0,0,0,0,0,0,0,0,0,0,0,0,0,0,0,0,0,0,0,0,0,0,0,0,0,0,0,0,0,0,0,0,0,0,0,0,0,0,0,0,0,0,0,0,0,0,0,0,0,0,0,0,0,0,0,0,0,0,0,0,0,0,0,0,0,0,0,0,0,0,0,0,0,0,0,0,0,0,0,0,0,0,0,0,0,0,0,0,0,0,0,0,0,0,0,0,0,0,0,0,0,0,0,0,0,0,0,0,0,0,0,0,0,0],"trees":[{"base_weights":[1.1027474E-6,-7.2012424E-1,9.031153E-1,-8.451789E-1,1.6850796E0,1.3373369E0,3.5082108E-1,-3.4472352E-1,-1.4750971E0,1.2230479E0,1.8513563E0,6.5444833E-1,1.5393718E0,1.9008034E-1,1.8773651E0,-5.3424215E-1,2.845632E-1,-1.7523483E0,-1.123206E0,-4.1710812E-1,1.4305243E0,5.6891555E-1,5.0106797E-2,1.0840659E0,5.3955905E-2,1.284911E0,1.7988291E0,6.741785E-1,-6.9320226E-1,5.723462E-1,2.5218025E-1,-7.870514E-1,-2.8341055E-1,6.54101E-1,-2.1934168E-1,-1.86313E0,-1.5593868E0,-1.3944746E0,-7.460168E-1,1.9613597E-1,-3.642187E-1,9.590644E-1,5.436675E-1,7.9818016E-1,1.256945E0,-6.030366E-1,5.5106497E-1,1.5041047E0,7.180298E-1,5.4328084E-1,-4.654971E-3,8.199289E-1,-1.2077535E0,-1.5050986E0,4.206566E-2,-1.954253E-2,-3.1144246E-1,1.6160635E-2,-2.051903E-1,1.01524755E-1,2.6815096E-1,9.112483E-3,-3.4001416E-1,-5.0992202E-2,-5.631426E-1,-4.0146038E-1,-5.178285E-1,-3.0323476E-1,-4.6792713E-1,-1.2691288E-1,-3.4667492E-1,-5.586066E-3,4.224382E-1,4.2195114E-1,3.5207924E-2,1.7033051E-1,4.0098464E-1,-2.0507279E-1,2.5218025E-1,3.8924837E-1,4.8840734E-1,6.1268997E-3,5.751235E-1,2.919683E-1,7.9962835E-2,-5.584929E-1,-1.8074784E-1,-3.111682E-1,-5.2122617E-1,1.2915948E-1,-1.13083325E-1],"categories":[],"categories_nodes":[],"categories_segments":[],"categories_sizes":[],"default_left":[0,0,0,0,0,0,0,0,0,0,0,0,0,0,0,0,0,0,0,0,0,0,0,0,0,0,0,0,0,0,0,0,0,0,0,0,0,0,0,0,0,0,0,0,0,0,0,0,0,0,0,0,0,0,0,0,0,0,0,0,0,0,0,0,0,0,0,0,0,0,0,0,0,0,0,0,0,0,0,0,0,0,0,0,0,0,0,0,0,0,0],"id":0,"left_children":[1,3,5,7,9,11,13,15,17,19,21,23,25,27,29,31,33,35,37,39,41,-1,-1,43,45,47,49,51,53,-1,-1,55,57,59,61,63,65,67,69,-1,-1,71,-1,73,75,77,-1,79,81,-1,-1,83,85,87,89,-1,-1,-1,-1,-1,-1,-1,-1,-1,-1,-1,-1,-1,-1,-1,-1,-1,-1,-1,-1,-1,-1,-1,-1,-1,-1,-1,-1,-1,-1,-1,-1,-1,-1,-1,-1],"loss_changes":[2.096787E3,5.4095386E2,3.425443E2,5.372283E2,4.57222E0,1.0942053E2,1.544556E2,1.1367368E2,7.16814E1,9.613293E0,4.4986877E0,4.753279E1,3.8418457E1,2.4501889E2,2.9057312E-1,4.618863E1,4.1290756E1,6.0820312E0,3.3283325E1,3.9938722E0,2.5353737E0,0E0,0E0,4.309059E0,9.246234E1,3.8055603E1,6.6830444E0,1.0246472E2,1.21230125E2,0E0,0E0,6.59037E1,4.9881878E1,9.364452E0,2.1544172E1,5.895935E0,3.5706482E0,1.0724762E1,1.8358383E1,0E0,0E0,5.6233063E0,0E0,1.7744946E1,2.823326E0,7.288286E0,0E0,3.6795044E0,7.502347E1,0E0,0E0,2.8919357E1,9.562866E0,8.685745E0,1.7657837E1,0E0,0E0,0E0,0E0,0E0,0E0,0E0,0E0,0E0,0E0,0E0,0E0,0E0,0E0,0E0,0E0,0E0,0E0,0E0,0E0,0E0,0E0,0E0,0E0,0E0,0E0,0E0,0E0,0E0,0E0,0E0,0E0,0E0,0E0,0E0,0E0],"parents":[2147483647,0,0,1,1,2,2,3,3,4,4,5,5,6,6,7,7,8,8,9,9,10,10,11,11,12,12,13,13,14,14,15,15,16,16,17,17,18,18,19,19,20,20,23,23,24,24,25,25,26,26,27,27,28,28,31,31,32,32,33,33,34,34,35,35,36,36,37,37,38,38,41,41,43,43,44,44,45,45,47,47,48,48,51,51,52,52,53,53,54,54],"right_children":[2,4,6,8,10,12,14,16,18,20,22,24,26,28,30,32,34,36,38,40,42,-1,-1,44,46,48,50,52,54,-1,-1,56,58,60,62,64,66,68,70,-1,-1,72,-1,74,76,78,-1,80,82,-1,-1,84,86,88,90,-1,-1,-1,-1,-1,-1,-1,-1,-1,-1,-1,-1,-1,-1,-1,-1,-1,-1,-1,-1,-1,-1,-1,-1,-1,-1,-1,-1,-1,-1,-1,-1,-1,-1,-1,-1],"split_conditions":[4.2E1,3E0,1E0,2E0,3.834002E4,4.5E1,3E0,3.9E1,5.329996E4,6.548186E4,1.8818705E5,2E0,5.1E1,2E0,6.5E1,1E0,1E0,3.6E1,3.6E1,7.92635E3,1.5184355E5,5.6891555E-1,5.0106797E-2,1E0,3E0,2E0,7.3E1,6.6E1,4.492888E4,5.723462E-1,2.5218025E-1,5.329996E4,2E0,1E0,2E0,1.9E1,1E0,1E0,1E0,1.9613597E-1,-3.642187E-1,3.8E1,5.436675E-1,6.27E2,5.54E2,1.6632866E5,5.5106497E-1,1E0,3E0,5.4328084E-1,-4.654971E-3,2E0,9.224394E4,6.12E2,1E0,-1.954253E-2,-3.1144246E-1,1.6160635E-2,-2.051903E-1,1.01524755E-1,2.6815096E-1,9.112483E-3,-3.4001416E-1,-5.0992202E-2,-5.631426E-1,-4.0146038E-1,-5.178285E-1,-3.0323476E-1,-4.6792713E-1,-1.2691288E-1,-3.4667492E-1,-5.586066E-3,4.224382E-1,4.2195114E-1,3.5207924E-2,1.7033051E-1,4.0098464E-1,-2.0507279E-1,2.5218025E-1,3.8924837E-1,4.8840734E-1,6.1268997E-3,5.751235E-1,2.919683E-1,7.9962835E-2,-5.584929E-1,-1.8074784E-1,-3.111682E-1,-5.2122617E-1,1.2915948E-1,-1.13083325E-1],"split_indices":[3,6,8,6,5,3,6,3,5,9,9,6,3,6,3,1,8,3,3,9,9,0,0,1,6,6,3,3,5,0,0,5,1,1,1,3,2,7,8,0,0,3,0,0,0,5,0,1,6,0,0,1,9,0,2,0,0,0,0,0,0,0,0,0,0,0,0,0,0,0,0,0,0,0,0,0,0,0,0,0,0,0,0,0,0,0,0,0,0,0,0],"split_type":[0,0,0,0,0,0,0,0,0,0,0,0,0,0,0,0,0,0,0,0,0,0,0,0,0,0,0,0,0,0,0,0,0,0,0,0,0,0,0,0,0,0,0,0,0,0,0,0,0,0,0,0,0,0,0,0,0,0,0,0,0,0,0,0,0,0,0,0,0,0,0,0,0,0,0,0,0,0,0,0,0,0,0,0,0,0,0,0,0,0,0],"sum_hessian":[3.2220637E3,1.7927572E3,1.4293064E3,1.7047692E3,8.798808E1,7.993917E2,6.299147E2,9.508712E2,7.538979E2,2.5496548E1,6.2491535E1,1.8347514E2,6.1591656E2,5.7092267E2,5.8992012E1,7.30901E2,2.1997021E2,4.1944318E2,3.344547E2,2.7496276E0,2.274692E1,6.074177E1,1.749763E0,1.0648558E2,7.698957E1,3.139575E2,3.019591E2,3.6895004E2,2.0197264E2,5.6492348E1,2.4996614E0,3.6295084E2,3.6795016E2,1.26732834E2,9.323737E1,2.6096466E2,1.5847853E2,1.9297386E2,1.4148083E2,1.2498307E0,1.4997969E0,1.1748409E1,1.099851E1,4.2244278E1,6.42413E1,5.6742313E1,2.0247257E1,2.252195E2,8.873798E1,2.9995938E2,1.9997292E0,3.4295355E2,2.5996479E1,9.548707E1,1.0648558E2,9.3987274E1,2.6896356E2,2.0022289E2,1.6772728E2,5.574245E1,7.099039E1,7.3989975E1,1.9247393E1,2.2496953E0,2.5871497E2,7.199025E1,8.648829E1,6.024184E1,1.3273203E2,8.0239136E1,6.1241707E1,3.9994583E0,7.7489505E0,2.1747055E1,2.0497223E1,7.4989843E0,5.6742313E1,5.4242653E1,2.4996614E0,8.873798E1,1.3648152E2,5.6742313E1,3.1995667E1,2.679637E2,7.4989845E1,1.1498443E1,1.4498036E1,3.3495464E1,6.1991604E1,5.524252E1,5.124306E1],"tree_param":{"num_deleted":"0","num_feature":"10","num_nodes":"91","size_leaf_vector":"1"}},{"base_weights":[1.6140656E-3,-5.224628E-1,6.687107E-1,-6.1289E-1,1.3011264E0,1.0047318E0,2.531919E-1,-2.4465801E-1,-1.0941535E0,9.389252E-1,1.4351742E0,6.779702E-1,1.282264E0,1.3364676E-1,1.4599392E0,-4.951921E-1,7.563436E-2,-1.3210082E0,-8.1614137E-1,-3.430495E-1,1.1072825E0,4.4185266E-1,4.057747E-2,9.2605996E-1,2.4822631E-1,1.0887765E0,1.4057665E0,4.822699E-1,-5.0441873E-1,4.4517776E-1,2.011791E-1,-2.2542882E-1,-8.032635E-1,2.8691766E-1,-1.83455E-1,-1.4160148E0,-1.1596901E0,-1.0251194E0,-5.333839E-1,1.6466996E-1,-3.0442452E-1,7.2965384E-1,4.2805192E-1,1.1112583E0,7.1911806E-1,-2.8257582E-1,4.471687E-1,1.2342722E0,7.014916E-1,1.417453E0,-3.7238367E-3,5.884995E-1,-9.075383E-1,-1.0303032E0,1.2792943E-1,3.326248E-2,-1.5094343E-1,-2.9424205E-1,-6.1824296E-2,1.920326E-2,1.4043693E-1,3.2952603E-2,-2.0364894E-1,-1.8269035E-1,-4.3312818E-1,1.1440953E-2,-3.5368142E-1,-1.20472156E-1,-3.3177325E-1,-1.3905697E-1,-4.8311228E-1,3.309319E-1,-4.0064953E-2,3.609666E-1,-7.123474E-2,2.2622731E-1,-1.7126897E-1,-5.824765E-2,-4.7201374E-1,3.301099E-1,4.3548316E-1,7.099146E-2,4.4036677E-1,4.289057E-1,2.7118847E-1,2.1056305E-1,5.645397E-2,-4.4017404E-2,-4.1038075E-1,-4.288543E-2,-3.5057634E-1,9.336106E-2,-2.4718435E-1],"categories":[],"categories_nodes":[],"categories_segments":[],"categories_sizes":[],"default_left":[0,0,0,0,0,0,0,0,0,0,0,0,0,0,0,0,0,0,0,0,0,0,0,0,0,0,0,0,0,0,0,0,0,0,0,0,0,0,0,0,0,0,0,0,0,0,0,0,0,0,0,0,0,0,0,0,0,0,0,0,0,0,0,0,0,0,0,0,0,0,0,0,0,0,0,0,0,0,0,0,0,0,0,0,0,0,0,0,0,0,0,0,0],"id":1,"left_children":[1,3,5,7,9,11,13,15,17,19,21,23,25,27,29,31,33,35,37,39,41,-1,-1,43,45,47,49,51,53,-1,-1,55,57,59,61,63,65,67,69,-1,-1,71,-1,73,75,77,-1,79,81,83,-1,85,87,89,91,-1,-1,-1,-1,-1,-1,-1,-1,-1,-1,-1,-1,-1,-1,-1,-1,-1,-1,-1,-1,-1,-1,-1,-1,-1,-1,-1,-1,-1,-1,-1,-1,-1,-1,-1,-1,-1,-1],"loss_changes":[1.0885072E3,2.8833054E2,1.9100568E2,2.9425934E2,2.6677094E0,6.7783264E1,8.835248E1,7.5694565E1,4.433899E1,5.825426E0,2.6636734E0,3.7064117E1,8.224548E0,1.247183E2,5.0491333E-2,4.3795517E1,2.2752502E1,4.4106445E0,1.8728073E1,2.76914E0,1.6787167E0,0E0,0E0,7.686325E0,8.574846E1,8.346268E0,4.0904846E0,5.4034775E1,6.604248E1,0E0,0E0,2.6534843E1,2.5949097E1,9.211727E0,2.7226017E1,4.585022E0,3.5472107E0,8.950378E0,9.840542E0,0E0,0E0,4.137296E0,0E0,1.4550339E1,5.275856E0,1.0137308E1,0E0,1.822937E0,1.638355E1,2.3864746E-1,0E0,1.5174797E1,8.950157E0,1.312471E1,1.6111097E1,0E0,0E0,0E0,0E0,0E0,0E0,0E0,0E0,0E0,0E0,0E0,0E0,0E0,0E0,0E0,0E0,0E0,0E0,0E0,0E0,0E0,0E0,0E0,0E0,0E0,0E0,0E0,0E0,0E0,0E0,0E0,0E0,0E0,0E0,0E0,0E0,0E0,0E0],"parents":[2147483647,0,0,1,1,2,2,3,3,4,4,5,5,6,6,7,7,8,8,9,9,10,10,11,11,12,12,13,13,14,14,15,15,16,16,17,17,18,18,19,19,20,20,23,23,24,24,25,25,26,26,27,27,28,28,31,31,32,32,33,33,34,34,35,35,36,36,37,37,38,38,41,41,43,43,44,44,45,45,47,47,48,48,49,49,51,51,52,52,53,53,54,54],"right_children":[2,4,6,8,10,12,14,16,18,20,22,24,26,28,30,32,34,36,38,40,42,-1,-1,44,46,48,50,52,54,-1,-1,56,58,60,62,64,66,68,70,-1,-1,72,-1,74,76,78,-1,80,82,84,-1,86,88,90,92,-1,-1,-1,-1,-1,-1,-1,-1,-1,-1,-1,-1,-1,-1,-1,-1,-1,-1,-1,-1,-1,-1,-1,-1,-1,-1,-1,-1,-1,-1,-1,-1,-1,-1,-1,-1,-1,-1],"split_conditions":[4.2E1,3E0,1E0,2E0,3.834002E4,4.8E1,3E0,3.6E1,5.329996E4,6.548186E4,1.8818705E5,2E0,5.2E1,2E0,6.5E1,1E0,1E0,3.6E1,3.6E1,7.92635E3,1.5184355E5,4.4185266E-1,4.057747E-2,1E0,3E0,2E0,7.3E1,6.6E1,8.591552E4,4.4517776E-1,2.011791E-1,1E0,1.615718E5,3.9E1,1.1899484E5,1E0,7.3888E2,2.5E1,1.8897481E5,1.6466996E-1,-3.0442452E-1,6.52E2,4.2805192E-1,1.5032916E5,1E1,7.73E2,4.471687E-1,1.4958367E5,3E0,6.9E1,-3.7238367E-3,2E0,1E0,5.37E2,1.441623E5,3.326248E-2,-1.5094343E-1,-2.9424205E-1,-6.1824296E-2,1.920326E-2,1.4043693E-1,3.2952603E-2,-2.0364894E-1,-1.8269035E-1,-4.3312818E-1,1.1440953E-2,-3.5368142E-1,-1.20472156E-1,-3.3177325E-1,-1.3905697E-1,-4.8311228E-1,3.309319E-1,-4.0064953E-2,3.609666E-1,-7.123474E-2,2.2622731E-1,-1.7126897E-1,-5.824765E-2,-4.7201374E-1,3.301099E-1,4.3548316E-1,7.099146E-2,4.4036677E-1,4.289057E-1,2.7118847E-1,2.1056305E-1,5.645397E-2,-4.4017404E-2,-4.1038075E-1,-4.288543E-2,-3.5057634E-1,9.336106E-2,-2.4718435E-1],"split_indices":[3,6,8,6,5,3,6,3,5,9,9,6,3,6,3,8,8,3,3,9,9,0,0,2,6,6,3,3,5,0,0,2,9,3,5,4,9,3,9,0,0,0,0,5,4,0,0,9,6,3,0,1,7,0,5,0,0,0,0,0,0,0,0,0,0,0,0,0,0,0,0,0,0,0,0,0,0,0,0,0,0,0,0,0,0,0,0,0,0,0,0,0,0],"split_type":[0,0,0,0,0,0,0,0,0,0,0,0,0,0,0,0,0,0,0,0,0,0,0,0,0,0,0,0,0,0,0,0,0,0,0,0,0,0,0,0,0,0,0,0,0,0,0,0,0,0,0,0,0,0,0,0,0,0,0,0,0,0,0,0,0,0,0,0,0,0,0,0,0,0,0,0,0,0,0,0,0,0,0,0,0,0,0,0,0,0,0,0,0],"sum_hessian":[3.1114912E3,1.7426597E3,1.3688315E3,1.6609607E3,8.1698944E1,7.5602924E2,6.1280237E2,9.418363E2,7.191244E2,2.4230865E1,5.746808E1,3.4880054E2,4.0722867E2,5.585782E2,5.4224197E1,5.2816064E2,4.1367563E2,3.939302E2,3.2519418E2,2.6923156E0,2.153855E1,5.5720432E1,1.7476463E0,2.2040598E2,1.2839458E2,1.6248476E2,2.4474393E2,3.6137567E2,1.9720251E2,5.1771023E1,2.4531715E0,2.8251108E2,2.456496E2,2.2780049E2,1.8587514E2,2.4302527E2,1.5090492E2,1.8548328E2,1.3971089E2,1.235076E0,1.4572396E0,1.137718E1,1.016137E1,1.1400748E2,1.063985E2,9.049998E1,3.7894592E1,1.16522446E2,4.5962303E1,2.427441E2,1.9998267E0,3.3625098E2,2.5124687E1,1.07321014E2,8.988151E1,1.2804909E2,1.5446198E2,1.888591E2,5.6790497E1,1.027534E2,1.250471E2,1.1723937E2,6.863576E1,8.840075E0,2.341852E2,2.3710191E0,1.485339E2,2.1960817E1,1.6352246E2,1.3254362E2,7.1672683E0,7.7474413E0,3.6297386E0,1.0683092E2,7.1765614E0,1.0399459E2,2.4039059E0,8.577501E1,4.72497E0,7.5851746E1,4.06707E1,2.9424086E1,1.653822E1,2.3535321E2,7.3908763E0,2.6145044E2,7.480052E1,9.9691725E0,1.5155515E1,1.4744098E1,9.257691E1,7.593422E1,1.3947285E1],"tree_param":{"num_deleted":"0","num_feature":"10","num_nodes":"93","size_leaf_vector":"1"}},{"base_weights":[2.8128668E-3,-3.660498E-1,5.625408E-1,-4.3458888E-1,1.0928953E0,8.5841286E-1,2.1951157E-1,-1.4368859E-1,-8.488273E-1,7.450944E-1,1.2376875E0,6.647338E-1,1.1614168E0,3.4477395E-1,-7.146841E-1,1.0610752E-1,-3.7392294E-1,-1.0805649E0,-5.905817E-1,-4.7253332E-1,9.111185E-1,3.8025153E-1,-1.7093245E-3,8.315259E-1,3.2191068E-1,1.171251E0,-2.979055E-3,2.5554773E-1,3.8853803E-1,-1.4045354E0,-4.0132868E-1,-4.6654707E-1,2.0485483E-1,-1.4521176E-1,-6.447863E-1,-9.369969E-1,-1.2008499E0,-7.7116185E-1,-3.2070935E-1,1.395526E-1,-3.2951766E-1,5.9363765E-1,3.7120014E-1,6.1060685E-1,9.749809E-1,-9.396015E-2,3.9555603E-1,1.0123494E0,1.2404406E0,4.8014885E-1,-1.9321457E-1,-5.518238E-1,-4.5993665E-1,-1.0707276E0,2.6480108E-2,-2.585404E-1,6.8487346E-2,1.7346404E-1,2.7092487E-2,-9.470483E-2,5.855779E-2,-1.4922307E-1,-4.2567453E-1,-5.954733E-2,-2.9374084E-1,1.1103221E-1,-3.653568E-1,-1.3810796E-1,-2.7558008E-1,-3.5110638E-2,-2.5245667E-1,-5.6190487E-2,2.7870432E-1,3.1522086E-1,9.278212E-2,3.5082647E-1,1.5209734E-1,-1.8749407E-1,1.2979713E-1,2.0524332E-1,3.3545592E-1,3.7734848E-1,2.1938892E-1,1.9605474E-1,5.7459205E-2,-2.1350971E-1,5.9357952E-2,-3.493135E-1,1.6945586E-1,-3.92446E-1,1.2625435E-1,1.2016425E-1,-3.2291284E-1],"categories":[],"categories_nodes":[],"categories_segments":[],"categories_sizes":[],"default_left":[0,0,0,0,0,0,0,0,0,0,0,0,0,0,0,0,0,0,0,0,0,0,0,0,0,0,0,0,0,0,0,0,0,0,0,0,0,0,0,0,0,0,0,0,0,0,0,0,0,0,0,0,0,0,0,0,0,0,0,0,0,0,0,0,0,0,0,0,0,0,0,0,0,0,0,0,0,0,0,0,0,0,0,0,0,0,0,0,0,0,0,0,0],"id":2,"left_children":[1,3,5,7,9,11,13,15,17,19,21,23,25,27,29,31,33,35,37,39,41,-1,-1,43,45,47,-1,49,-1,51,53,55,57,59,61,63,65,67,69,-1,-1,71,-1,73,75,77,-1,79,81,83,85,87,-1,89,91,-1,-1,-1,-1,-1,-1,-1,-1,-1,-1,-1,-1,-1,-1,-1,-1,-1,-1,-1,-1,-1,-1,-1,-1,-1,-1,-1,-1,-1,-1,-1,-1,-1,-1,-1,-1,-1,-1],"loss_changes":[6.024865E2,1.7636311E2,1.17458435E2,2.0241354E2,3.0667648E0,3.5731384E1,6.322017E1,5.689451E1,4.084555E1,5.645275E0,2.024643E0,2.156392E1,2.7902527E0,3.996388E1,1.3260727E1,2.695173E1,3.1788895E1,5.1631165E0,1.5837044E1,2.7138958E0,1.6518669E0,0E0,0E0,7.5244904E0,5.25914E1,1.3742371E0,0E0,4.4003593E1,0E0,1.3003922E0,1.3022989E1,1.9464073E1,1.7301344E1,1.6328892E1,2.6141869E1,5.1132965E0,5.64917E0,8.605545E0,1.411814E1,0E0,0E0,3.735849E0,0E0,1.3407982E1,1.3389999E1,2.5509323E1,0E0,1.9444962E0,5.161743E-1,1.4416992E1,2.9750017E1,3.4809968E0,0E0,6.824686E0,1.2254467E1,0E0,0E0,0E0,0E0,0E0,0E0,0E0,0E0,0E0,0E0,0E0,0E0,0E0,0E0,0E0,0E0,0E0,0E0,0E0,0E0,0E0,0E0,0E0,0E0,0E0,0E0,0E0,0E0,0E0,0E0,0E0,0E0,0E0,0E0,0E0,0E0,0E0,0E0],"parents":[2147483647,0,0,1,1,2,2,3,3,4,4,5,5,6,6,7,7,8,8,9,9,10,10,11,11,12,12,13,13,14,14,15,15,16,16,17,17,18,18,19,19,20,20,23,23,24,24,25,25,27,27,29,29,30,30,31,31,32,32,33,33,34,34,35,35,36,36,37,37,38,38,41,41,43,43,44,44,45,45,47,47,48,48,49,49,50,50,51,51,53,53,54,54],"right_children":[2,4,6,8,10,12,14,16,18,20,22,24,26,28,30,32,34,36,38,40,42,-1,-1,44,46,48,-1,50,-1,52,54,56,58,60,62,64,66,68,70,-1,-1,72,-1,74,76,78,-1,80,82,84,86,88,-1,90,92,-1,-1,-1,-1,-1,-1,-1,-1,-1,-1,-1,-1,-1,-1,-1,-1,-1,-1,-1,-1,-1,-1,-1,-1,-1,-1,-1,-1,-1,-1,-1,-1,-1,-1,-1,-1,-1,-1],"split_conditions":[4.3E1,3E0,1E0,2E0,3.834002E4,5.1E1,6.4E1,1E0,5.329996E4,6.548186E4,1.915205E5,2E0,7.3E1,3E0,6.611907E4,2.9E1,1E0,1E0,3.7E1,7.92635E3,1.5184355E5,3.8025153E-1,-1.7093245E-3,1E0,3E0,5.4E1,-2.979055E-3,2E0,3.8853803E-1,1.358993E4,9.450435E4,1.3477802E5,5.953218E4,3.8E1,7.38E2,1E0,7.3888E2,1E0,1.350784E5,1.395526E-1,-3.2951766E-1,3.8E1,3.7120014E-1,3.834002E4,2E0,8.229382E4,3.9555603E-1,5.799574E4,6.9E1,6E0,4.492888E4,1.204867E4,-4.5993665E-1,3E0,1.4057611E5,-2.585404E-1,6.8487346E-2,1.7346404E-1,2.7092487E-2,-9.470483E-2,5.855779E-2,-1.4922307E-1,-4.2567453E-1,-5.954733E-2,-2.9374084E-1,1.1103221E-1,-3.653568E-1,-1.3810796E-1,-2.7558008E-1,-3.5110638E-2,-2.5245667E-1,-5.6190487E-2,2.7870432E-1,3.1522086E-1,9.278212E-2,3.5082647E-1,1.5209734E-1,-1.8749407E-1,1.2979713E-1,2.0524332E-1,3.3545592E-1,3.7734848E-1,2.1938892E-1,1.9605474E-1,5.7459205E-2,-2.1350971E-1,5.9357952E-2,-3.493135E-1,1.6945586E-1,-3.92446E-1,1.2625435E-1,1.2016425E-1,-3.2291284E-1],"split_indices":[3,6,8,6,5,3,3,2,5,9,9,6,3,6,9,3,8,2,3,9,9,0,0,1,6,3,0,6,0,9,5,9,5,3,0,4,9,7,5,0,0,3,0,5,1,5,0,9,3,4,5,9,0,6,5,0,0,0,0,0,0,0,0,0,0,0,0,0,0,0,0,0,0,0,0,0,0,0,0,0,0,0,0,0,0,0,0,0,0,0,0,0,0],"split_type":[0,0,0,0,0,0,0,0,0,0,0,0,0,0,0,0,0,0,0,0,0,0,0,0,0,0,0,0,0,0,0,0,0,0,0,0,0,0,0,0,0,0,0,0,0,0,0,0,0,0,0,0,0,0,0,0,0,0,0,0,0,0,0,0,0,0,0,0,0,0,0,0,0,0,0,0,0,0,0,0,0,0,0,0,0,0,0,0,0,0,0,0,0],"sum_hessian":[2.9161392E3,1.7579741E3,1.158165E3,1.6797634E3,7.821067E1,6.210178E2,5.371473E2,9.8757947E2,6.92184E2,2.4795692E1,5.3414978E1,3.8080344E2,2.402144E2,4.7419534E2,6.295192E1,4.7392587E2,5.136536E2,3.6313736E2,3.2904666E2,2.7537081E0,2.2041985E1,5.2145092E1,1.2698886E0,2.5521121E2,1.2559222E2,2.3821451E2,1.999889E0,4.3465552E2,3.953981E1,1.857558E1,4.4376335E1,6.915545E1,4.0477042E2,2.793297E2,2.3432388E2,1.6955385E2,1.9358351E2,1.9602356E2,1.3302309E2,1.2050111E0,1.5486971E0,1.2599555E1,9.44243E0,1.0254675E2,1.5266446E2,8.925366E1,3.6338554E1,7.700205E1,1.6121246E2,2.8962906E2,1.4502646E2,3.127471E0,1.5448111E1,1.6716679E1,2.7659658E1,4.3927364E1,2.5228086E1,9.407849E1,3.1069193E2,1.8617021E2,9.31595E1,1.9822835E2,3.6095528E1,9.460771E0,1.6009308E2,1.8507847E0,1.9173273E2,6.439677E1,1.316268E2,9.650692E1,3.6516174E1,3.9179516E0,8.681603E0,4.0664677E1,6.1882076E1,1.0679456E2,4.5869904E1,4.4348053E1,4.4905613E1,2.0596277E1,5.640578E1,1.5446686E2,6.745603E0,1.8015152E2,1.0947755E2,6.2003147E1,8.302331E1,1.9920254E0,1.1354457E0,1.4527238E1,2.1894412E0,2.1129688E1,6.5299706E0],"tree_param":{"num_deleted":"0","num_feature":"10","num_nodes":"93","size_leaf_vector":"1"}},{"base_weights":[3.5175446E-3,-3.628024E-1,3.5308492E-1,-4.1099095E-1,9.5475245E-1,5.790161E-1,9.940116E-2,-1.94487E-1,-7.3202413E-1,6.42763E-1,1.0959082E0,3.1038788E-1,8.764761E-1,2.2277702E-2,3.432592E-1,-4.2931792E-1,2.5822623E-2,-9.6223253E-1,-4.4115245E-1,2.7003416E-1,3.26167E-1,3.4009475E-1,5.6506682E-2,3.8594842E-1,-3.4998146E-1,7.0720077E-1,1.0401899E0,2.1664356E-1,-3.4948963E-1,-5.0206846E-1,9.198835E-1,3.0681825E-1,-3.3331048E-1,1.3007934E-1,-9.730715E-1,-7.484109E-1,-2.8297725E-1,7.834981E-1,-3.9898312E-1,5.8392495E-1,1.6188991E-1,-1.0031825E0,3.0706862E-1,3.9660084E-1,9.030239E-1,1.0523363E0,-2.3831935E-3,2.5087804E-1,-3.9318612E-1,-7.1471214E-1,-6.129111E-2,-3.5814862E-3,-2.2330604E-1,4.3121058E-1,-6.95036E-2,-4.913178E-1,1.1426766E-1,1.16036855E-1,-2.1206512E-1,-3.2576537E-1,-2.438453E-1,-1.4777106E-1,-3.7307265E-1,-1.364078E-1,2.6364021E-2,3.551728E-1,-2.9056609E-2,2.8915107E-1,-4.1057608E-1,3.7931594E-1,1.5408096E-1,9.217387E-2,-1.2779841E-1,-6.804241E-2,-4.2592117E-1,2.7668917E-1,-5.3499423E-2,1.8924765E-1,-5.66988E-2,3.4136054E-1,2.2893998E-1,2.6232943E-1,3.295797E-1,1.3584311E-1,1.1479691E-2,-1.7282382E-1,-3.8096032E-1,-1.3737679E-1,6.7514636E-2],"categories":[],"categories_nodes":[],"categories_segments":[],"categories_sizes":[],"default_left":[0,0,0,0,0,0,0,0,0,0,0,0,0,0,0,0,0,0,0,0,0,0,0,0,0,0,0,0,0,0,0,0,0,0,0,0,0,0,0,0,0,0,0,0,0,0,0,0,0,0,0,0,0,0,0,0,0,0,0,0,0,0,0,0,0,0,0,0,0,0,0,0,0,0,0,0,0,0,0,0,0,0,0,0,0,0,0,0,0],"id":3,"left_children":[1,3,5,7,9,11,13,15,17,19,21,23,25,27,-1,29,31,33,35,37,-1,-1,-1,39,41,43,45,47,49,51,53,55,57,-1,59,61,63,65,67,69,71,73,75,77,79,81,-1,83,-1,85,87,-1,-1,-1,-1,-1,-1,-1,-1,-1,-1,-1,-1,-1,-1,-1,-1,-1,-1,-1,-1,-1,-1,-1,-1,-1,-1,-1,-1,-1,-1,-1,-1,-1,-1,-1,-1,-1,-1],"loss_changes":[3.4849106E2,8.476483E1,7.975722E1,8.901146E1,1.3737488E0,5.8567917E1,5.293043E1,3.9714314E1,3.414557E1,2.5422244E0,8.5071564E-1,1.9519497E1,8.932831E0,4.4373356E1,0E0,3.69292E1,4.015529E1,4.769226E0,1.0962978E1,3.9678564E0,0E0,0E0,0E0,1.538966E1,1.7651985E1,1.0264587E1,2.2392273E0,2.1409506E1,2.2149853E1,4.193006E1,1.18707485E1,3.277269E1,4.727085E1,0E0,4.277649E0,9.20953E0,9.808613E0,2.3557599E0,8.300101E0,8.200142E0,1.424192E1,6.307535E0,6.409442E0,9.6268215E0,2.625E0,4.6510315E-1,0E0,1.6949396E1,0E0,6.4186974E0,1.3612115E1,0E0,0E0,0E0,0E0,0E0,0E0,0E0,0E0,0E0,0E0,0E0,0E0,0E0,0E0,0E0,0E0,0E0,0E0,0E0,0E0,0E0,0E0,0E0,0E0,0E0,0E0,0E0,0E0,0E0,0E0,0E0,0E0,0E0,0E0,0E0,0E0,0E0,0E0],"parents":[2147483647,0,0,1,1,2,2,3,3,4,4,5,5,6,6,7,7,8,8,9,9,10,10,11,11,12,12,13,13,15,15,16,16,17,17,18,18,19,19,23,23,24,24,25,25,26,26,27,27,28,28,29,29,30,30,31,31,32,32,34,34,35,35,36,36,37,37,38,38,39,39,40,40,41,41,42,42,43,43,44,44,45,45,47,47,49,49,50,50],"right_children":[2,4,6,8,10,12,14,16,18,20,22,24,26,28,-1,30,32,34,36,38,-1,-1,-1,40,42,44,46,48,50,52,54,56,58,-1,60,62,64,66,68,70,72,74,76,78,80,82,-1,84,-1,86,88,-1,-1,-1,-1,-1,-1,-1,-1,-1,-1,-1,-1,-1,-1,-1,-1,-1,-1,-1,-1,-1,-1,-1,-1,-1,-1,-1,-1,-1,-1,-1,-1,-1,-1,-1,-1,-1,-1],"split_conditions":[4E1,3E0,1E0,2E0,3.834002E4,4.7E1,3E0,1E0,8.331928E4,1.3312262E5,1.8818705E5,7.56E2,5.2E1,2E0,3.432592E-1,1.7491272E5,2E0,1.9E1,4E0,6.52E2,3.26167E-1,3.4009475E-1,5.6506682E-2,1E0,8E2,1E0,7.3E1,7.2E1,4.492888E4,7.427487E4,1.1697348E5,7.600157E4,7.515034E4,1.3007934E-1,6.78E2,1.2989519E5,3.7E1,1E0,2E0,4.95E2,2E0,8.229382E4,8.21E2,2E0,1E0,5.4E1,-2.3831935E-3,1E0,-3.9318612E-1,6E1,4.7E1,-3.5814862E-3,-2.2330604E-1,4.3121058E-1,-6.95036E-2,-4.913178E-1,1.1426766E-1,1.16036855E-1,-2.1206512E-1,-3.2576537E-1,-2.438453E-1,-1.4777106E-1,-3.7307265E-1,-1.364078E-1,2.6364021E-2,3.551728E-1,-2.9056609E-2,2.8915107E-1,-4.1057608E-1,3.7931594E-1,1.5408096E-1,9.217387E-2,-1.2779841E-1,-6.804241E-2,-4.2592117E-1,2.7668917E-1,-5.3499423E-2,1.8924765E-1,-5.66988E-2,3.4136054E-1,2.2893998E-1,2.6232943E-1,3.295797E-1,1.3584311E-1,1.1479691E-2,-1.7282382E-1,-3.8096032E-1,-1.3737679E-1,6.7514636E-2],"split_indices":[3,6,8,6,5,3,6,1,5,9,9,0,3,6,0,5,1,3,4,0,0,0,0,2,0,1,3,3,5,5,9,5,5,0,0,5,3,8,4,0,1,5,0,6,7,3,0,2,0,3,3,0,0,0,0,0,0,0,0,0,0,0,0,0,0,0,0,0,0,0,0,0,0,0,0,0,0,0,0,0,0,0,0,0,0,0,0,0,0],"split_type":[0,0,0,0,0,0,0,0,0,0,0,0,0,0,0,0,0,0,0,0,0,0,0,0,0,0,0,0,0,0,0,0,0,0,0,0,0,0,0,0,0,0,0,0,0,0,0,0,0,0,0,0,0,0,0,0,0,0,0,0,0,0,0,0,0,0,0,0,0,0,0,0,0,0,0,0,0,0,0,0,0,0,0,0,0,0,0,0,0],"sum_hessian":[2.7194485E3,1.3278867E3,1.3915618E3,1.2816976E3,4.6189026E1,7.3536346E2,6.5619836E2,7.6642706E2,5.1527057E2,1.6117939E1,3.0071087E1,3.8748212E2,3.4788132E2,6.1204083E2,4.4157547E1,3.7052786E2,3.9589923E2,2.8634036E2,2.289302E2,9.640702E0,6.4772363E0,2.8631317E1,1.4397699E0,3.4807086E2,3.9411266E1,1.7365094E2,1.7423036E2,4.0218787E2,2.0985295E2,3.521665E2,1.836135E1,2.221941E2,1.7370511E2,1.9058362E0,2.844345E2,7.65326E1,1.5239761E2,5.357646E0,4.2830563E0,1.8393822E2,1.6413264E2,1.949935E1,1.9911919E1,6.831697E1,1.0533398E2,1.7223044E2,1.999929E0,3.9418768E2,8.000201E0,9.1905205E1,1.1794774E2,1.1684478E2,2.3532173E2,1.2497207E1,5.864142E0,7.378881E0,2.1481523E2,5.9321518E1,1.1438359E2,1.6353542E2,1.208991E2,5.1775894E1,2.475671E1,1.0401174E2,4.8385868E1,3.4456496E0,1.9119964E0,1.782967E0,2.5000894E0,1.5638069E1,1.6830014E2,1.3197803E2,3.215461E1,7.3482223E0,1.2151127E1,8.384616E0,1.1527302E1,4.8743507E1,1.9573463E1,3.6658577E1,6.86754E1,3.965127E1,1.3257916E2,2.015922E2,1.9259547E2,7.517123E1,1.6733978E1,4.9199078E1,6.8748665E1],"tree_param":{"num_deleted":"0","num_feature":"10","num_nodes":"89","size_leaf_vector":"1"}},{"base_weights":[2.7316106E-3,-1.9300893E-1,4.2112595E-1,-2.3859733E-1,9.156424E-1,6.700005E-1,1.8200332E-1,-5.6331083E-2,-5.440614E-1,9.3625844E-1,-7.014322E-2,5.050565E-1,8.938909E-1,3.7717903E-1,-3.0603474E-1,-3.4382832E-1,6.948655E-2,-7.507894E-1,-3.506186E-1,6.5637165E-1,3.2418725E-1,2.5189683E-1,6.822348E-1,9.186798E-1,2.9300332E-1,-5.848276E-2,4.934832E-1,2.4863284E-2,-6.53184E-1,-1.3183035E-1,-5.845425E-1,1.457779E0,4.4891756E-2,-9.3717045E-1,-5.632955E-1,1.2579267E0,-3.7345022E-1,8.1537E-1,1.14472024E-1,6.088335E-1,-1.6700546E-1,8.1320906E-1,4.427982E-1,7.31651E-1,1.015795E0,2.830196E-1,-5.89538E-1,1.8392444E-1,-5.332763E-1,6.926588E-1,2.578085E-1,2.836609E-1,-6.4441764E-1,-7.414404E-1,7.0045394E-1,2.0473402E-2,-1.5037452E-1,-1.9293313E-1,4.6450546E-1,5.3431636E-1,1.8072835E-1,-3.8255874E-2,5.907442E-2,-3.9876666E-2,-2.9247728E-1,-2.0331614E-1,-6.368388E-2,5.084055E-1,1.1409388E-1,-1.3753039E-1,1.009439E-2,1.477569E-1,2.7761862E-1,2.8309646E-1,-1.8211046E-1,3.3062416E-1,1.287186E-1,-2.8428993E-1,2.6949469E-2,-1.603348E-1,2.5168943E-1,2.2652824E-1,-1.4696239E-2,1.3420704E-1,2.7690187E-1,3.1061918E-1,1.9066253E-1,-2.1526662E-1,1.5735532E-1,-2.4088858E-1,2.627658E-1,1.4805548E-1,3.2482207E-1,-5.0338928E-2,1.5947652E-1,1.4672059E-1,-2.6723E-1,-3.0990574E-1,3.3945803E-2,-2.474295E-1,1.9721042E-1,2.4003948E-1,5.9529442E-2],"categories":[],"categories_nodes":[],"categories_segments":[],"categories_sizes":[],"default_left":[0,0,0,0,0,0,0,0,0,0,0,0,0,0,0,0,0,0,0,0,0,0,0,0,0,0,0,0,0,0,0,0,0,0,0,0,0,0,0,0,0,0,0,0,0,0,0,0,0,0,0,0,0,0,0,0,0,0,0,0,0,0,0,0,0,0,0,0,0,0,0,0,0,0,0,0,0,0,0,0,0,0,0,0,0,0,0,0,0,0,0,0,0,0,0,0,0,0,0,0,0,0,0],"id":4,"left_children":[1,3,5,7,9,11,13,15,17,19,-1,21,23,25,27,29,31,33,35,37,-1,39,41,43,45,47,49,51,53,55,57,59,61,63,65,67,69,71,73,75,77,79,81,83,85,-1,-1,87,89,91,93,95,97,99,101,-1,-1,-1,-1,-1,-1,-1,-1,-1,-1,-1,-1,-1,-1,-1,-1,-1,-1,-1,-1,-1,-1,-1,-1,-1,-1,-1,-1,-1,-1,-1,-1,-1,-1,-1,-1,-1,-1,-1,-1,-1,-1,-1,-1,-1,-1,-1,-1],"loss_changes":[2.0929967E2,8.8217064E1,4.8353195E1,9.312251E1,1.8534088E0,1.4274612E1,3.9815697E1,3.79684E1,2.473616E1,2.0366669E0,0E0,1.0230167E1,2.2310944E0,1.5136921E1,1.37567425E1,1.6227016E1,2.4877369E1,1.0001724E1,1.2399139E1,2.1186247E0,0E0,1.4615079E1,3.8998795E0,2.1763458E0,1.3777604E1,7.4319634E0,1.0873554E1,1.0957254E1,7.497614E0,1.2685699E1,1.9649017E1,2.4344616E0,1.8865658E1,4.412796E0,5.989994E0,1.1857405E0,1.1122734E1,2.4346924E-1,4.7529345E0,4.193434E0,9.195831E0,3.4547195E0,7.7510805E0,2.7702293E0,1.1138916E-1,0E0,0E0,1.3556754E1,8.985539E0,9.332127E0,1.28409195E1,1.1424799E1,5.3134413E0,6.990246E0,4.586935E-2,0E0,0E0,0E0,0E0,0E0,0E0,0E0,0E0,0E0,0E0,0E0,0E0,0E0,0E0,0E0,0E0,0E0,0E0,0E0,0E0,0E0,0E0,0E0,0E0,0E0,0E0,0E0,0E0,0E0,0E0,0E0,0E0,0E0,0E0,0E0,0E0,0E0,0E0,0E0,0E0,0E0,0E0,0E0,0E0,0E0,0E0,0E0,0E0],"parents":[2147483647,0,0,1,1,2,2,3,3,4,4,5,5,6,6,7,7,8,8,9,9,11,11,12,12,13,13,14,14,15,15,16,16,17,17,18,18,19,19,21,21,22,22,23,23,24,24,25,25,26,26,27,27,28,28,29,29,30,30,31,31,32,32,33,33,34,34,35,35,36,36,37,37,38,38,39,39,40,40,41,41,42,42,43,43,44,44,47,47,48,48,49,49,50,50,51,51,52,52,53,53,54,54],"right_children":[2,4,6,8,10,12,14,16,18,20,-1,22,24,26,28,30,32,34,36,38,-1,40,42,44,46,48,50,52,54,56,58,60,62,64,66,68,70,72,74,76,78,80,82,84,86,-1,-1,88,90,92,94,96,98,100,102,-1,-1,-1,-1,-1,-1,-1,-1,-1,-1,-1,-1,-1,-1,-1,-1,-1,-1,-1,-1,-1,-1,-1,-1,-1,-1,-1,-1,-1,-1,-1,-1,-1,-1,-1,-1,-1,-1,-1,-1,-1,-1,-1,-1,-1,-1,-1,-1],"split_conditions":[4.5E1,3E0,1E0,2E0,1.923599E5,5.1E1,5.8E1,3.3E1,5.329996E4,3.834002E4,-7.014322E-2,1E0,6.9E1,4.7E1,5E0,1E0,4.27E2,3.6E1,5.736961E4,6.88E2,3.2418725E-1,1E0,2E0,5.4E1,1E0,2E0,1E0,6.7E1,3E0,1.2243309E5,1.8589155E5,7E0,1E0,1E0,8E0,1E0,2E0,8.90874E4,2E0,2E0,1E0,8.173288E4,6E0,9.224394E4,6.5E1,2.830196E-1,-5.89538E-1,7.052392E4,3E0,1.3852756E5,1E0,1.362814E5,1.2139998E5,1.915205E5,6.5E1,2.0473402E-2,-1.5037452E-1,-1.9293313E-1,4.6450546E-1,5.3431636E-1,1.8072835E-1,-3.8255874E-2,5.907442E-2,-3.9876666E-2,-2.9247728E-1,-2.0331614E-1,-6.368388E-2,5.084055E-1,1.1409388E-1,-1.3753039E-1,1.009439E-2,1.477569E-1,2.7761862E-1,2.8309646E-1,-1.8211046E-1,3.3062416E-1,1.287186E-1,-2.8428993E-1,2.6949469E-2,-1.603348E-1,2.5168943E-1,2.2652824E-1,-1.4696239E-2,1.3420704E-1,2.7690187E-1,3.1061918E-1,1.9066253E-1,-2.1526662E-1,1.5735532E-1,-2.4088858E-1,2.627658E-1,1.4805548E-1,3.2482207E-1,-5.0338928E-2,1.5947652E-1,1.4672059E-1,-2.6723E-1,-3.0990574E-1,3.3945803E-2,-2.474295E-1,1.9721042E-1,2.4003948E-1,5.9529442E-2],"split_indices":[3,6,8,6,9,3,3,3,5,5,0,1,3,3,4,8,0,3,5,0,0,2,1,3,2,6,2,3,6,9,5,4,1,4,4,1,1,9,4,4,7,5,4,9,3,0,0,9,6,9,1,5,5,9,3,0,0,0,0,0,0,0,0,0,0,0,0,0,0,0,0,0,0,0,0,0,0,0,0,0,0,0,0,0,0,0,0,0,0,0,0,0,0,0,0,0,0,0,0,0,0,0,0],"split_type":[0,0,0,0,0,0,0,0,0,0,0,0,0,0,0,0,0,0,0,0,0,0,0,0,0,0,0,0,0,0,0,0,0,0,0,0,0,0,0,0,0,0,0,0,0,0,0,0,0,0,0,0,0,0,0,0,0,0,0,0,0,0,0,0,0,0,0,0,0,0,0,0,0,0,0,0,0,0,0,0,0,0,0,0,0,0,0,0,0,0,0,0,0,0,0,0,0,0,0,0,0,0,0],"sum_hessian":[2.553661E3,1.7401106E3,8.135502E2,1.6721361E3,6.7974464E1,3.9776334E2,4.1578683E2,1.0479957E3,6.2414044E2,6.695899E1,1.0154724E0,2.3090637E2,1.6685698E2,2.9717004E2,1.18616806E2,3.1849408E2,7.2950165E2,3.0031705E2,3.2382336E2,2.4672375E1,4.2286613E1,9.60656E1,1.3484077E2,1.5973831E2,7.1186724E0,6.2721134E1,2.3444891E2,6.1205208E1,5.74116E1,1.7017125E2,1.4832283E2,1.1684414E1,7.1781726E2,1.4860036E2,1.5171669E2,3.7749193E0,3.2004843E2,1.8685287E1,5.987088E0,5.1624332E1,4.4441265E1,8.561316E1,4.922761E1,5.7512344E1,1.0222596E2,5.9788437E0,1.1398283E0,4.1927536E1,2.07936E1,1.2601277E2,1.08436134E2,4.4553448E1,1.665176E1,5.4322094E1,3.0895076E0,1.1091531E2,5.9255936E1,1.4503864E2,3.2841842E0,7.694188E0,3.9902258E0,3.3642932E2,3.8138794E2,6.86566E0,1.417347E2,1.13716415E2,3.8000282E1,1.8988917E0,1.8760277E0,2.6467062E2,5.5377815E1,6.141306E0,1.2543982E1,2.6424224E0,3.3446655E0,1.2419087E1,3.9205242E1,1.0336128E1,3.4105137E1,1.235118E0,8.437804E1,2.9780716E1,1.9446894E1,2.448021E1,3.3032135E1,9.557606E1,6.6499033E0,1.1193604E1,3.073393E1,1.7814453E1,2.9791465E0,8.4923584E1,4.1089188E1,4.2599743E1,6.5836395E1,3.841774E1,6.1357055E0,1.0765779E1,5.8859816E0,5.165545E1,2.6666434E0,2.0822551E0,1.0072523E0],"tree_param":{"num_deleted":"0","num_feature":"10","num_nodes":"103","size_leaf_vector":"1"}},{"base_weights":[4.2775213E-3,-1.84089E-1,2.6523623E-1,-1.3629595E-2,-3.442233E-1,2.010405E-1,1.0903604E0,-1.6990429E-1,1.2243674E-1,-3.731823E-1,7.156994E-1,3.6933374E-1,-1.6016497E-1,5.9322095E-1,3.3414474E-1,-3.7912035E-1,1.9558541E-2,2.2694023E-1,-2.7851945E-1,-2.2630952E-1,-6.361234E-1,-6.1276052E-2,8.023419E-1,5.8042586E-1,1.524387E-1,-5.158572E-1,8.4705815E-2,1.4826188E-2,2.5128004E-1,-8.307522E-1,-8.2708254E-2,3.6036462E-1,-1.5738034E-1,3.1233338E-1,-4.5727798E-1,-1.8552348E-1,-3.6334622E-1,-5.470857E-2,-4.2804906E-1,-6.617822E-1,5.374502E-1,5.190348E-1,2.817814E-1,4.517065E-1,8.297466E-1,-1.000983E-1,3.2356635E-1,-7.491653E-2,-8.364308E-1,-4.21417E-2,5.5473304E-1,-2.946472E-1,9.463165E-2,7.3933554E-1,-5.328354E-2,-1.3647902E-2,3.5753086E-1,-1.7058967E-2,-2.257806E-1,6.417398E-2,2.1718313E-1,-1.8775253E-1,3.923435E-1,-1.3475779E-1,2.6604086E-2,-9.084526E-2,7.504697E-2,-4.7929298E-2,-2.2668025E-1,-2.5610474E-1,-1.4955364E-1,2.5732073E-1,2.318455E-2,2.2059338E-1,1.0641791E-1,2.6056927E-1,9.274996E-2,1.6638511E-1,-1.4952844E-1,2.0001847E-1,-5.0636716E-2,-7.0073314E-2,5.57027E-1,-1.4893033E-1,-3.1910703E-1,3.5285514E-2,-2.1439673E-1,2.79285E-1,-2.3501126E-2],"categories":[],"categories_nodes":[],"categories_segments":[],"categories_sizes":[],"default_left":[0,0,0,0,0,0,0,0,0,0,0,0,0,0,0,0,0,0,0,0,0,0,0,0,0,0,0,0,0,0,0,0,0,0,0,0,0,0,0,0,0,0,0,0,0,0,0,0,0,0,0,0,0,0,0,0,0,0,0,0,0,0,0,0,0,0,0,0,0,0,0,0,0,0,0,0,0,0,0,0,0,0,0,0,0,0,0,0,0],"id":5,"left_children":[1,3,5,7,9,11,13,15,17,19,21,23,25,27,-1,29,31,33,35,37,39,-1,41,43,45,47,49,-1,-1,51,53,55,57,59,61,63,-1,65,67,69,-1,71,-1,73,75,77,79,81,83,85,87,-1,-1,-1,-1,-1,-1,-1,-1,-1,-1,-1,-1,-1,-1,-1,-1,-1,-1,-1,-1,-1,-1,-1,-1,-1,-1,-1,-1,-1,-1,-1,-1,-1,-1,-1,-1,-1,-1],"loss_changes":[1.1896138E2,3.8361694E1,5.352057E1,1.45198145E1,2.2510704E1,5.735434E1,1.9059753E-1,1.2603968E1,1.5360602E1,2.712352E1,1.727397E0,2.9363365E1,2.619662E1,6.8007386E-1,0E0,2.0154728E1,1.0170284E1,1.7095705E1,6.3607497E0,1.5713272E1,1.6913383E1,0E0,2.1581364E-1,1.0075699E1,1.3802254E1,1.7263214E1,1.0677611E1,0E0,0E0,1.0678837E1,2.275425E1,1.9497278E1,6.60402E0,1.0319275E1,1.0517972E1,5.117079E0,0E0,1.874218E1,1.8227268E1,7.425606E0,0E0,1.1520326E0,0E0,5.7063293E0,1.9478836E0,3.403993E1,3.2242104E1,1.658431E1,4.9481926E0,1.5303039E1,9.134696E0,0E0,0E0,0E0,0E0,0E0,0E0,0E0,0E0,0E0,0E0,0E0,0E0,0E0,0E0,0E0,0E0,0E0,0E0,0E0,0E0,0E0,0E0,0E0,0E0,0E0,0E0,0E0,0E0,0E0,0E0,0E0,0E0,0E0,0E0,0E0,0E0,0E0,0E0],"parents":[2147483647,0,0,1,1,2,2,3,3,4,4,5,5,6,6,7,7,8,8,9,9,10,10,11,11,12,12,13,13,15,15,16,16,17,17,18,18,19,19,20,20,22,22,23,23,24,24,25,25,26,26,29,29,30,30,31,31,32,32,33,33,34,34,35,35,37,37,38,38,39,39,41,41,43,43,44,44,45,45,46,46,47,47,48,48,49,49,50,50],"right_children":[2,4,6,8,10,12,14,16,18,20,22,24,26,28,-1,30,32,34,36,38,40,-1,42,44,46,48,50,-1,-1,52,54,56,58,60,62,64,-1,66,68,70,-1,72,-1,74,76,78,80,82,84,86,88,-1,-1,-1,-1,-1,-1,-1,-1,-1,-1,-1,-1,-1,-1,-1,-1,-1,-1,-1,-1,-1,-1,-1,-1,-1,-1,-1,-1,-1,-1,-1,-1,-1,-1,-1,-1,-1,-1],"split_conditions":[4.2E1,1E0,3E0,3.5E1,3E0,2E0,4.3E1,1E0,2E0,2E0,3.869134E4,1E0,4.492888E4,3.834002E4,3.3414474E-1,9.142974E4,6E2,1.4526023E5,9E0,6.48E2,2.0422303E5,-6.1276052E-2,3.834002E4,5E1,1E0,6.12E2,2E0,1.4826188E-2,2.5128004E-1,7.67E2,9.224394E4,5.81E2,1.6877355E5,9E0,2.0422303E5,3.9E1,-3.6334622E-1,3.6E1,1E0,5.329996E4,5.374502E-1,5.98E2,2.817814E-1,4.492888E4,6.5E1,3.834002E4,2E0,6.1E2,4.6E1,1.3870502E5,1E0,-2.946472E-1,9.463165E-2,7.3933554E-1,-5.328354E-2,-1.3647902E-2,3.5753086E-1,-1.7058967E-2,-2.257806E-1,6.417398E-2,2.1718313E-1,-1.8775253E-1,3.923435E-1,-1.3475779E-1,2.6604086E-2,-9.084526E-2,7.504697E-2,-4.7929298E-2,-2.2668025E-1,-2.5610474E-1,-1.4955364E-1,2.5732073E-1,2.318455E-2,2.2059338E-1,1.0641791E-1,2.6056927E-1,9.274996E-2,1.6638511E-1,-1.4952844E-1,2.0001847E-1,-5.0636716E-2,-7.0073314E-2,5.57027E-1,-1.4893033E-1,-3.1910703E-1,3.5285514E-2,-2.1439673E-1,2.79285E-1,-2.3501126E-2],"split_indices":[3,2,6,3,6,6,3,1,1,6,9,8,5,5,0,9,0,5,4,0,5,0,5,3,1,0,1,0,0,0,9,0,9,4,5,3,0,3,8,5,0,0,0,5,3,5,1,0,3,5,2,0,0,0,0,0,0,0,0,0,0,0,0,0,0,0,0,0,0,0,0,0,0,0,0,0,0,0,0,0,0,0,0,0,0,0,0,0,0],"split_type":[0,0,0,0,0,0,0,0,0,0,0,0,0,0,0,0,0,0,0,0,0,0,0,0,0,0,0,0,0,0,0,0,0,0,0,0,0,0,0,0,0,0,0,0,0,0,0,0,0,0,0,0,0,0,0,0,0,0,0,0,0,0,0,0,0,0,0,0,0,0,0,0,0,0,0,0,0,0,0,0,0,0,0,0,0,0,0,0,0],"sum_hessian":[2.4180908E3,1.4045477E3,1.0135431E3,6.8086597E2,7.2368176E2,9.415342E2,7.2008934E1,3.1678445E2,3.640815E2,7.05066E2,1.8615768E1,6.422663E2,2.9926788E2,4.428925E0,6.758001E1,1.5006871E2,1.6671576E2,2.8915216E2,7.492937E1,4.5357196E2,2.5149402E2,1.4855086E0,1.7130259E1,3.2463788E2,3.1762842E2,1.21570885E2,1.77697E2,1.7459689E0,2.6829562E0,5.8750347E1,9.131837E1,5.6620686E1,1.1009507E2,2.5755212E2,3.1600016E1,6.9225586E1,5.7037797E0,2.457806E2,2.0779137E2,2.4958344E2,1.9105744E0,7.1426463E0,9.987613E0,2.1595587E2,1.08682E2,1.2846489E2,1.8916353E2,5.169687E1,6.9874016E1,1.4064981E2,3.70472E1,5.2021698E1,6.728648E0,2.383322E0,8.893504E1,3.8682674E1,1.793801E1,9.51263E1,1.4968772E1,2.0907898E2,4.847316E1,2.9434494E1,2.1655228E0,3.4965374E1,3.426021E1,1.3550722E2,1.1027338E2,1.1504791E2,9.2743454E1,1.1278838E2,1.3679506E2,3.5098839E0,3.6327622E0,5.335237E1,1.626035E2,1.005183E2,8.163697E0,4.844532E1,8.001957E1,1.11261986E2,7.7901535E1,4.858531E1,3.1115556E0,2.9269365E1,4.060465E1,1.1431795E2,2.633186E1,2.2942524E1,1.4104674E1],"tree_param":{"num_deleted":"0","num_feature":"10","num_nodes":"89","size_leaf_vector":"1"}},{"base_weights":[4.637536E-3,-3.5091408E-2,9.061084E-1,8.87311E-2,-2.811366E-1,6.266147E-1,1.0306208E0,-1.9933032E-2,3.6755002E-1,-5.2298445E-1,-1.0568088E-1,4.2077625E-1,3.1162584E-1,3.1549275E-1,3.7060585E-2,1.1186386E-1,-1.4520545E-1,5.96613E-1,1.825018E-1,-3.460556E-1,-7.077721E-1,-2.0980431E-1,2.1692476E-1,1.6392155E-2,7.8870577E-1,8.335407E-2,1.1140509E0,4.25572E-1,-1.6094068E-1,4.9863833E-1,8.0203557E-1,3.8781098E-1,-2.2774741E-1,-4.1625914E-1,4.933322E-1,5.6987846E-1,-7.470289E-1,-1.5991382E-1,-9.8046625E-1,3.0521008E-1,-7.810605E-1,3.8121262E-1,-6.083032E-1,2.7753603E-1,-4.718003E-2,4.2867344E-2,-1.1308737E-1,-2.531217E-2,4.0221035E-1,-1.3536938E-2,-9.321128E-2,1.09706335E-1,2.3765577E-1,2.6527557E-1,7.1995385E-2,2.1809416E-1,5.300965E-2,-1.276596E-1,8.8304E-2,2.489171E-1,-1.3933404E-1,2.7746424E-1,-3.2641706E-1,-2.6724E-1,7.059265E-1,2.3267432E-1,-2.3062041E-1,-1.2982862E-1,-1.8548945E-2,2.8606492E-1,-3.4594595E-1,-9.2683546E-2,1.2518196E-1,5.53868E-2,-4.341652E-1,1.9346426E-1,-1.5523395E-1,2.1905157E-1,-3.9816275E-1],"categories":[],"categories_nodes":[],"categories_segments":[],"categories_sizes":[],"default_left":[0,0,0,0,0,0,0,0,0,0,0,0,0,0,0,0,0,0,0,0,0,0,0,0,0,0,0,0,0,0,0,0,0,0,0,0,0,0,0,0,0,0,0,0,0,0,0,0,0,0,0,0,0,0,0,0,0,0,0,0,0,0,0,0,0,0,0,0,0,0,0,0,0,0,0,0,0,0,0],"id":6,"left_children":[1,3,5,7,9,11,13,15,17,19,21,23,-1,-1,-1,25,27,29,31,33,35,37,39,41,43,45,47,-1,49,51,53,55,57,59,61,63,65,67,69,71,73,75,77,-1,-1,-1,-1,-1,-1,-1,-1,-1,-1,-1,-1,-1,-1,-1,-1,-1,-1,-1,-1,-1,-1,-1,-1,-1,-1,-1,-1,-1,-1,-1,-1,-1,-1,-1,-1],"loss_changes":[8.254859E1,6.728504E1,2.7399902E0,4.452624E1,3.1317066E1,2.3230486E0,1.1239471E0,1.7488771E1,1.7359951E1,9.909836E0,1.4480488E1,3.4655814E0,0E0,0E0,0E0,1.4658039E1,1.3589536E1,3.297615E0,1.9410412E1,9.670942E0,7.9977493E0,1.235375E1,9.520269E0,3.0029907E0,1.7224488E0,1.3840792E1,3.9700298E0,0E0,9.326166E0,4.6681137E0,2.4533348E0,1.0845322E1,8.091244E0,9.317932E0,9.779348E0,1.5295684E1,5.4512177E0,8.183674E0,7.641821E0,6.839568E0,5.9558244E0,2.2982287E0,5.6534276E0,0E0,0E0,0E0,0E0,0E0,0E0,0E0,0E0,0E0,0E0,0E0,0E0,0E0,0E0,0E0,0E0,0E0,0E0,0E0,0E0,0E0,0E0,0E0,0E0,0E0,0E0,0E0,0E0,0E0,0E0,0E0,0E0,0E0,0E0,0E0,0E0],"parents":[2147483647,0,0,1,1,2,2,3,3,4,4,5,5,6,6,7,7,8,8,9,9,10,10,11,11,15,15,16,16,17,17,18,18,19,19,20,20,21,21,22,22,23,23,24,24,25,25,26,26,28,28,29,29,30,30,31,31,32,32,33,33,34,34,35,35,36,36,37,37,38,38,39,39,40,40,41,41,42,42],"right_children":[2,4,6,8,10,12,14,16,18,20,22,24,-1,-1,-1,26,28,30,32,34,36,38,40,42,44,46,48,-1,50,52,54,56,58,60,62,64,66,68,70,72,74,76,78,-1,-1,-1,-1,-1,-1,-1,-1,-1,-1,-1,-1,-1,-1,-1,-1,-1,-1,-1,-1,-1,-1,-1,-1,-1,-1,-1,-1,-1,-1,-1,-1,-1,-1,-1,-1],"split_conditions":[3E0,2E0,3.834002E4,4.6E1,4.492888E4,1.5184355E5,1.9317988E5,1E0,1E0,1E0,4.7E1,4.3E1,3.1162584E-1,3.1549275E-1,3.7060585E-2,1.7811181E5,4.14E2,5.3E1,5.7E1,1E1,3.2586E3,1.836821E5,6.8E1,6.52E2,5.9E1,1.4526023E5,5.16E2,4.25572E-1,1E0,1.4570419E5,6.5E1,1E0,7.28E2,4.67E2,7.21E2,1E0,1.9E1,3.3E1,2.2E1,4.12488E4,6.21E2,1.1168757E5,2E0,2.7753603E-1,-4.718003E-2,4.2867344E-2,-1.1308737E-1,-2.531217E-2,4.0221035E-1,-1.3536938E-2,-9.321128E-2,1.09706335E-1,2.3765577E-1,2.6527557E-1,7.1995385E-2,2.1809416E-1,5.300965E-2,-1.276596E-1,8.8304E-2,2.489171E-1,-1.3933404E-1,2.7746424E-1,-3.2641706E-1,-2.6724E-1,7.059265E-1,2.3267432E-1,-2.3062041E-1,-1.2982862E-1,-1.8548945E-2,2.8606492E-1,-3.4594595E-1,-9.2683546E-2,1.2518196E-1,5.53868E-2,-4.341652E-1,1.9346426E-1,-1.5523395E-1,2.1905157E-1,-3.9816275E-1],"split_indices":[6,6,5,3,5,9,9,2,8,2,3,3,0,0,0,5,0,3,3,4,9,9,3,0,3,5,0,0,8,9,3,7,0,0,0,1,3,3,3,9,0,9,4,0,0,0,0,0,0,0,0,0,0,0,0,0,0,0,0,0,0,0,0,0,0,0,0,0,0,0,0,0,0,0,0,0,0,0,0],"split_type":[0,0,0,0,0,0,0,0,0,0,0,0,0,0,0,0,0,0,0,0,0,0,0,0,0,0,0,0,0,0,0,0,0,0,0,0,0,0,0,0,0,0,0,0,0,0,0,0,0,0,0,0,0,0,0,0,0,0,0,0,0,0,0,0,0,0,0,0,0,0,0,0,0,0,0,0,0,0,0],"sum_hessian":[2.3030063E3,2.2067148E3,9.6291595E1,1.4683868E3,7.383279E2,3.153572E1,6.4755875E1,1.0572667E3,4.111202E2,3.0959796E2,4.2872992E2,2.2379469E1,9.156252E0,6.31334E1,1.622472E0,5.152687E2,5.41998E2,1.8271782E2,2.2840237E2,1.5962976E2,1.499682E2,3.243826E2,1.0434731E2,1.1159183E1,1.1220287E1,5.020692E2,1.3199479E1,4.5112753E0,5.3748676E2,1.260342E2,5.6683617E1,1.5225905E2,7.614334E1,1.477745E2,1.1855265E1,4.0675993E0,1.459006E2,3.0579385E2,1.8588737E1,9.6504364E1,7.842945E0,7.291013E0,3.8681703E0,9.825447E0,1.3948396E0,4.4517902E2,5.689019E1,2.1991422E0,1.1000337E1,3.038274E2,2.3365935E2,8.8291756E1,3.774245E1,4.8950005E1,7.7336154E0,5.7475777E1,9.4783264E1,5.535731E1,2.0786026E1,4.898406E0,1.428761E2,9.639789E0,2.2154756E0,2.51112E0,1.5564792E0,1.5625163E0,1.4433807E2,7.995749E1,2.2583638E2,1.1530668E0,1.743567E1,1.4620527E1,8.1883835E1,3.4967678E0,4.346177E0,5.8554187E0,1.435594E0,1.3461702E0,2.522E0],"tree_param":{"num_deleted":"0","num_feature":"10","num_nodes":"79","size_leaf_vector":"1"}},{"base_weights":[5.118417E-3,-2.538901E-2,8.332916E-1,-2.2622119E-1,7.023681E-2,5.4979056E-1,9.699389E-1,-1.15683965E-1,-4.6412066E-1,1.5596655E-1,-1.01399355E-1,3.534634E-1,2.9292932E-1,2.9864797E-1,3.0614933E-2,-2.935429E-1,4.0718358E-2,-6.3666105E-1,-1.6435476E-1,2.4322335E-1,-1.5749504E-1,4.939234E-2,-2.6401982E-1,2.6489852E-3,7.0542294E-1,1.3521083E-1,-4.6910924E-1,-3.1352517E-1,1.7401549E-1,-7.686904E-2,-7.1824396E-1,2.4678276E0,-3.5806495E-1,5.6843568E-2,5.026839E-1,3.672919E-1,-4.782704E-1,-3.9063427E-1,1.4263465E-1,-6.973676E-2,-6.6278577E-1,2.0333923E-1,-2.9712337E-1,2.5664753E-1,-3.8022157E-2,-4.3741712E-1,9.6449405E-2,-1.9707255E-1,8.146712E-2,-1.3946946E-1,1.3350886E-1,6.346411E-2,-2.7297145E-1,-1.739329E-1,4.952399E-1,-3.0967188E-1,-1.6357195E-1,1.7679715E-1,9.530608E-1,1.9462071E-2,-2.1886651E-1,1.1837567E-1,-3.246159E-2,-2.3630786E-1,1.7527977E-1,2.1563344E-1,3.999124E-2,-2.0962685E-1,2.8376494E-2,-3.047574E-1,5.4816995E-2,3.5555553E-1,2.2973895E-2,1.5471506E-1,-5.6277983E-2,-6.9584735E-2,-3.3817554E-1,1.1013628E-1,-2.8912368E-1],"categories":[],"categories_nodes":[],"categories_segments":[],"categories_sizes":[],"default_left":[0,0,0,0,0,0,0,0,0,0,0,0,0,0,0,0,0,0,0,0,0,0,0,0,0,0,0,0,0,0,0,0,0,0,0,0,0,0,0,0,0,0,0,0,0,0,0,0,0,0,0,0,0,0,0,0,0,0,0,0,0,0,0,0,0,0,0,0,0,0,0,0,0,0,0,0,0,0,0],"id":7,"left_children":[1,3,5,7,9,11,13,15,17,19,21,23,-1,-1,-1,25,27,29,31,33,35,37,39,41,43,45,47,49,51,53,55,57,59,61,63,65,67,69,71,73,75,-1,77,-1,-1,-1,-1,-1,-1,-1,-1,-1,-1,-1,-1,-1,-1,-1,-1,-1,-1,-1,-1,-1,-1,-1,-1,-1,-1,-1,-1,-1,-1,-1,-1,-1,-1,-1,-1],"loss_changes":[5.579766E1,4.0925037E1,2.5063477E0,1.8021202E1,2.1260584E1,1.9857197E0,1.0435905E0,1.3103561E1,1.1156166E1,2.6385283E1,1.1821457E1,2.544754E0,0E0,0E0,0E0,1.664863E1,1.1920629E1,6.2396507E0,4.2124805E1,3.642908E1,3.558731E1,1.0341853E1,1.7915546E1,2.4951017E0,1.3936996E0,1.9697584E1,2.1952972E1,8.137016E0,7.6466017E0,1.7163448E1,5.9658127E0,5.6814384E0,1.2021691E1,2.4562832E1,3.3624733E1,6.5139513E0,1.6611216E1,1.5995544E1,1.4205772E1,1.0930322E1,1.4913723E1,0E0,4.136906E0,0E0,0E0,0E0,0E0,0E0,0E0,0E0,0E0,0E0,0E0,0E0,0E0,0E0,0E0,0E0,0E0,0E0,0E0,0E0,0E0,0E0,0E0,0E0,0E0,0E0,0E0,0E0,0E0,0E0,0E0,0E0,0E0,0E0,0E0,0E0,0E0],"parents":[2147483647,0,0,1,1,2,2,3,3,4,4,5,5,6,6,7,7,8,8,9,9,10,10,11,11,15,15,16,16,17,17,18,18,19,19,20,20,21,21,22,22,23,23,24,24,25,25,26,26,27,27,28,28,29,29,30,30,31,31,32,32,33,33,34,34,35,35,36,36,37,37,38,38,39,39,40,40,42,42],"right_children":[2,4,6,8,10,12,14,16,18,20,22,24,-1,-1,-1,26,28,30,32,34,36,38,40,42,44,46,48,50,52,54,56,58,60,62,64,66,68,70,72,74,76,-1,78,-1,-1,-1,-1,-1,-1,-1,-1,-1,-1,-1,-1,-1,-1,-1,-1,-1,-1,-1,-1,-1,-1,-1,-1,-1,-1,-1,-1,-1,-1,-1,-1,-1,-1,-1,-1],"split_conditions":[3E0,3.6E1,3.834002E4,2E0,2E0,1.5184355E5,1.9317988E5,1E0,1.0826937E5,2E0,1E0,4.3E1,2.9292932E-1,2.9864797E-1,3.0614933E-2,5.953218E4,2.9E1,2.5E1,1.0917288E5,1E0,8.229382E4,4.12488E4,1.3477802E5,3E0,5.9E1,2E0,1.5288097E5,9E0,1E1,9.501092E4,6.15E2,1E0,1E0,4.492888E4,9.037109E4,5.97E2,1.4575045E5,8.53117E4,4.742873E4,2E0,1E0,2.0333923E-1,6.08E2,2.5664753E-1,-3.8022157E-2,-4.3741712E-1,9.6449405E-2,-1.9707255E-1,8.146712E-2,-1.3946946E-1,1.3350886E-1,6.346411E-2,-2.7297145E-1,-1.739329E-1,4.952399E-1,-3.0967188E-1,-1.6357195E-1,1.7679715E-1,9.530608E-1,1.9462071E-2,-2.1886651E-1,1.1837567E-1,-3.246159E-2,-2.3630786E-1,1.7527977E-1,2.1563344E-1,3.999124E-2,-2.0962685E-1,2.8376494E-2,-3.047574E-1,5.4816995E-2,3.5555553E-1,2.2973895E-2,1.5471506E-1,-5.6277983E-2,-6.9584735E-2,-3.3817554E-1,1.1013628E-1,-2.8912368E-1],"split_indices":[6,3,5,6,6,9,9,1,5,1,2,3,0,0,0,5,3,3,5,1,5,9,9,4,3,4,5,4,4,5,0,2,2,5,5,0,5,5,9,4,8,0,0,0,0,0,0,0,0,0,0,0,0,0,0,0,0,0,0,0,0,0,0,0,0,0,0,0,0,0,0,0,0,0,0,0,0,0,0],"split_type":[0,0,0,0,0,0,0,0,0,0,0,0,0,0,0,0,0,0,0,0,0,0,0,0,0,0,0,0,0,0,0,0,0,0,0,0,0,0,0,0,0,0,0,0,0,0,0,0,0,0,0,0,0,0,0,0,0,0,0,0,0,0,0,0,0,0,0,0,0,0,0,0,0,0,0,0,0,0,0],"sum_hessian":[2.2066213E3,2.1291587E3,7.746252E1,6.863433E2,1.4428156E3,2.6827385E1,5.0635128E1,4.6962415E2,2.1671915E2,9.6226807E2,4.8054745E2,1.962502E1,7.202365E0,4.9044037E1,1.5910928E0,2.1932895E2,2.5029521E2,1.3683517E2,7.988397E1,7.5290857E2,2.0935948E2,2.497034E2,2.3084407E2,1.0333082E1,9.291937E0,6.378597E1,1.5554298E2,6.806285E1,1.8223236E2,1.7652494E1,1.1918268E2,4.671169E0,7.52128E1,4.388709E2,3.1403766E2,7.936831E1,1.2999117E2,4.3103073E1,2.0660033E2,1.5600946E2,7.483461E1,2.789506E0,7.5435767E0,7.848533E0,1.4434035E0,5.9625793E0,5.7823387E1,1.24171776E2,3.137121E1,5.7062828E1,1.1000019E1,1.769115E2,5.3208604E0,1.4187168E1,3.4653273E0,4.0574688E1,7.860799E1,1.7817734E0,2.8893955E0,3.555691E1,3.965589E1,1.4360963E2,2.952613E2,1.8159237E1,2.9587842E2,3.0891933E1,4.847637E1,9.370543E1,3.6285744E1,2.0249754E1,2.2853321E1,1.1300555E1,1.9529977E2,2.5577435E1,1.3043202E2,3.9600624E1,3.5233982E1,4.0035696E0,3.5400069E0],"tree_param":{"num_deleted":"0","num_feature":"10","num_nodes":"79","size_leaf_vector":"1"}},{"base_weights":[3.3787417E-3,-2.0186648E-2,7.6246065E-1,-8.29237E-2,1.8890949E-1,5.23114E-1,9.568003E-1,2.3141772E-2,-2.1433696E-1,2.2029792E-1,-8.1660265E-1,2.5857916E-1,7.066399E-1,3.0143082E-1,3.080743E-2,-3.5954118E-1,3.5394166E-2,-2.2536163E-1,1.2942555E0,2.0019606E-1,4.1989502E-1,1.3452044E-1,-1.1472712E0,9.4783595E-3,2.4945857E-1,8.16356E-1,-7.4690156E-2,6.083383E-1,1.3257044E-2,-2.0442586E-1,-1.124729E0,8.7320834E-2,4.6729416E-1,3.557265E-1,5.437614E-2,-2.5602952E-1,2.031763E-1,-3.6989403E-1,-7.546361E-2,1.750167E-1,-2.2837016E-1,8.588014E-1,7.6894276E-2,2.6717797E-1,-3.3775288E-1,-1.2594008E-1,1.4326037E-2,2.8019267E-1,-6.553711E-2,-3.855929E-1,4.707247E-3,1.8791571E-1,7.038299E-2,8.915253E-2,-3.611262E-2,3.9351813E-2,-3.0278188E-1,9.880335E-2,2.7218097E-1],"categories":[],"categories_nodes":[],"categories_segments":[],"categories_sizes":[],"default_left":[0,0,0,0,0,0,0,0,0,0,0,0,0,0,0,0,0,0,0,0,0,0,0,0,0,0,0,0,0,0,0,0,0,0,0,0,0,0,0,0,0,0,0,0,0,0,0,0,0,0,0,0,0,0,0,0,0,0,0],"id":8,"left_children":[1,3,5,7,9,11,13,15,17,19,21,23,25,-1,-1,-1,27,29,31,33,-1,35,37,39,-1,41,-1,43,45,47,49,-1,-1,51,53,-1,-1,-1,-1,-1,55,57,-1,-1,-1,-1,-1,-1,-1,-1,-1,-1,-1,-1,-1,-1,-1,-1,-1],"loss_changes":[3.8040615E1,2.7074327E1,2.4778671E0,2.2129951E1,1.5214535E1,1.3174076E0,1.2952347E0,1.320329E1,1.208445E1,1.068977E1,4.7563686E0,2.0235517E0,2.0554304E0,0E0,0E0,0E0,1.1045794E1,1.3039982E1,9.450331E-1,1.0325663E1,0E0,3.0819514E0,5.3147316E-1,1.6254784E0,0E0,1.6212082E-1,0E0,1.6861198E1,1.257065E1,1.1224688E1,2.9155025E0,0E0,0E0,7.082649E0,1.0074579E1,0E0,0E0,0E0,0E0,0E0,2.504178E0,7.38554E-2,0E0,0E0,0E0,0E0,0E0,0E0,0E0,0E0,0E0,0E0,0E0,0E0,0E0,0E0,0E0,0E0,0E0],"parents":[2147483647,0,0,1,1,2,2,3,3,4,4,5,5,6,6,7,7,8,8,9,9,10,10,11,11,12,12,16,16,17,17,18,18,19,19,21,21,22,22,23,23,25,25,27,27,28,28,29,29,30,30,33,33,34,34,40,40,41,41],"right_children":[2,4,6,8,10,12,14,16,18,20,22,24,26,-1,-1,-1,28,30,32,34,-1,36,38,40,-1,42,-1,44,46,48,50,-1,-1,52,54,-1,-1,-1,-1,-1,56,58,-1,-1,-1,-1,-1,-1,-1,-1,-1,-1,-1,-1,-1,-1,-1,-1,-1],"split_conditions":[3E0,4.7E1,4.3E1,1E0,7.2E1,3.834002E4,6.6E1,2.2E1,2.0422303E5,1.9335486E5,5.48E2,1.5184355E5,1.8818705E5,3.0143082E-1,3.080743E-2,-3.5954118E-1,2.5E1,8.5E2,5.74E2,5E0,4.1989502E-1,7E0,1.4658069E5,3E0,2.4945857E-1,1.735683E5,-7.4690156E-2,1.3668966E5,2.9E1,4.27E2,9E0,8.7320834E-2,4.6729416E-1,5.91E2,1E0,-2.5602952E-1,2.031763E-1,-3.6989403E-1,-7.546361E-2,1.750167E-1,6.28E2,1.839193E4,7.6894276E-2,2.6717797E-1,-3.3775288E-1,-1.2594008E-1,1.4326037E-2,2.8019267E-1,-6.553711E-2,-3.855929E-1,4.707247E-3,1.8791571E-1,7.038299E-2,8.915253E-2,-3.611262E-2,3.9351813E-2,-3.0278188E-1,9.880335E-2,2.7218097E-1],"split_indices":[6,3,3,8,3,5,3,3,5,5,0,9,9,0,0,0,3,0,0,4,0,4,5,4,0,9,0,5,3,0,4,0,0,0,8,0,0,0,0,0,0,9,0,0,0,0,0,0,0,0,0,0,0,0,0,0,0,0,0],"split_type":[0,0,0,0,0,0,0,0,0,0,0,0,0,0,0,0,0,0,0,0,0,0,0,0,0,0,0,0,0,0,0,0,0,0,0,0,0,0,0,0,0,0,0,0,0,0,0,0,0,0,0,0,0,0,0,0,0,0,0],"sum_hessian":[2.124732E3,2.0617007E3,6.303125E1,1.5863397E3,4.7536084E2,2.989932E1,3.313193E1,8.7828644E2,7.080533E2,4.6172827E2,1.3632567E1,1.3233483E1,1.6665838E1,3.1203085E1,1.9288447E0,7.760082E0,8.7052637E2,7.037609E2,4.2924066E0,4.5514023E2,6.5880394E0,3.6698701E0,9.962697E0,9.931929E0,3.3015547E0,1.508016E1,1.5856783E0,3.1398645E1,8.3912775E2,6.8895056E2,1.4810319E1,1.3303919E0,2.9620147E0,2.1954047E2,2.3559975E2,1.098243E0,2.5716271E0,8.74902E0,1.2136781E0,2.484424E0,7.4475045E0,1.3521881E1,1.5582786E0,2.742191E1,3.976736E0,6.1087288E1,7.7804047E2,7.5898952E0,6.813607E2,1.2870934E1,1.9393854E0,6.6580734E1,1.5295973E2,9.830906E1,1.372907E2,5.669281E0,1.7782234E0,1.7877705E0,1.1734111E1],"tree_param":{"num_deleted":"0","num_feature":"10","num_nodes":"59","size_leaf_vector":"1"}},{"base_weights":[3.2223747E-3,-1.4740754E-2,6.9438535E-1,8.475622E-2,-1.1568888E-1,4.5539322E-1,9.094421E-1,6.261031E-3,2.450483E-1,3.5572493E-1,-1.2689207E-1,2.384566E-1,6.5810984E-1,2.906233E-1,2.5134552E-2,-9.157537E-2,1.7208391E-1,3.236034E-1,-1.4520633E-2,-1.02477804E-1,-7.418565E-1,-6.945749E-3,5.636443E-1,8.483094E-1,2.2969364E-1,-2.6770446E-1,5.4537963E-2,5.789681E-1,3.779066E-2,3.3804145E-1,-3.5107917E-1,-3.5500494E-1,2.7316058E-1,-2.1925898E-1,6.8194214E-3,4.7637567E-1,-1.0586858E0,4.990588E-1,-2.382816E-1,2.2985308E-1,8.430703E-3,6.909486E-2,2.8183192E-1,5.8994216E-1,-2.0437627E-1,-9.741392E-2,2.2466582E-1,5.4556694E-2,-1.276632E-1,-3.156742E-2,2.5994322E-1,-2.8329236E-2,1.2291611E-1,1.3087742E-1,3.920139E-2,3.250488E-2,-2.1190003E-1,1.2597649E-1,-1.0552401E-1,-3.1070504E-2,-1.1900669E-1,1.2703097E-1,-2.3561953E-2,2.7184972E-1,-1.1168086E-1,-3.795843E-1,3.851437E-1,1.7990184E-1,4.7527444E-2,6.217065E-2,-2.163631E-1,2.2284965E-1,1.0434071E-2],"categories":[],"categories_nodes":[],"categories_segments":[],"categories_sizes":[],"default_left":[0,0,0,0,0,0,0,0,0,0,0,0,0,0,0,0,0,0,0,0,0,0,0,0,0,0,0,0,0,0,0,0,0,0,0,0,0,0,0,0,0,0,0,0,0,0,0,0,0,0,0,0,0,0,0,0,0,0,0,0,0,0,0,0,0,0,0,0,0,0,0,0,0],"id":9,"left_children":[1,3,5,7,9,11,13,15,17,-1,19,21,23,-1,-1,25,27,29,31,33,35,37,39,41,43,45,47,49,51,53,-1,55,57,59,61,63,65,67,69,-1,-1,-1,-1,71,-1,-1,-1,-1,-1,-1,-1,-1,-1,-1,-1,-1,-1,-1,-1,-1,-1,-1,-1,-1,-1,-1,-1,-1,-1,-1,-1,-1,-1],"loss_changes":[2.585526E1,2.0398487E1,2.2971668E0,1.28686285E1,1.4847962E1,1.0299487E0,1.2292843E0,1.1172142E1,6.8604336E0,0E0,1.4942987E1,1.1694512E0,8.9569426E-1,0E0,0E0,1.1161542E1,1.394025E1,5.9635677E0,7.841993E0,1.2296952E1,1.5185562E1,1.2089105E0,6.6111624E-1,2.8470802E-1,2.202287E0,1.1635235E1,1.4598786E1,1.2550455E1,9.538879E0,5.1663E0,0E0,6.042243E0,4.130177E0,9.519098E0,1.7763306E1,3.452334E0,1.638324E1,1.6198814E-2,1.6699501E0,0E0,0E0,0E0,0E0,3.5334682E-1,0E0,0E0,0E0,0E0,0E0,0E0,0E0,0E0,0E0,0E0,0E0,0E0,0E0,0E0,0E0,0E0,0E0,0E0,0E0,0E0,0E0,0E0,0E0,0E0,0E0,0E0,0E0,0E0,0E0],"parents":[2147483647,0,0,1,1,2,2,3,3,4,4,5,5,6,6,7,7,8,8,10,10,11,11,12,12,15,15,16,16,17,17,18,18,19,19,20,20,21,21,22,22,23,23,24,24,25,25,26,26,27,27,28,28,29,29,31,31,32,32,33,33,34,34,35,35,36,36,37,37,38,38,43,43],"right_children":[2,4,6,8,10,12,14,16,18,-1,20,22,24,-1,-1,26,28,30,32,34,36,38,40,42,44,46,48,50,52,54,-1,56,58,60,62,64,66,68,70,-1,-1,-1,-1,72,-1,-1,-1,-1,-1,-1,-1,-1,-1,-1,-1,-1,-1,-1,-1,-1,-1,-1,-1,-1,-1,-1,-1,-1,-1,-1,-1,-1,-1],"split_conditions":[3E0,1E0,4.3E1,4.4E1,4.14E2,8.591552E4,6.6E1,1.3104836E5,2E0,3.5572493E-1,1E1,1.2089307E5,1E0,2.906233E-1,2.5134552E-2,1E0,1.4511595E5,1.9727612E5,1.0873296E5,1.0779885E5,3.324597E4,3E0,4.1E1,1.839193E4,1.7209608E5,1.7334083E5,1.3414069E5,4E0,8E0,2E0,-3.5107917E-1,1E0,1.7785256E5,7.515034E4,2E0,4.1E1,1.9335486E5,1E0,6.01E2,2.2985308E-1,8.430703E-3,6.909486E-2,2.8183192E-1,1.4865484E5,-2.0437627E-1,-9.741392E-2,2.2466582E-1,5.4556694E-2,-1.276632E-1,-3.156742E-2,2.5994322E-1,-2.8329236E-2,1.2291611E-1,1.3087742E-1,3.920139E-2,3.250488E-2,-2.1190003E-1,1.2597649E-1,-1.0552401E-1,-3.1070504E-2,-1.1900669E-1,1.2703097E-1,-2.3561953E-2,2.7184972E-1,-1.1168086E-1,-3.795843E-1,3.851437E-1,1.7990184E-1,4.7527444E-2,6.217065E-2,-2.163631E-1,2.2284965E-1,1.0434071E-2],"split_indices":[6,2,3,3,0,5,3,9,1,0,4,9,8,0,0,1,9,9,9,5,9,4,3,9,9,5,5,4,4,6,0,8,9,5,4,3,5,8,0,0,0,0,0,5,0,0,0,0,0,0,0,0,0,0,0,0,0,0,0,0,0,0,0,0,0,0,0,0,0,0,0,0,0],"split_type":[0,0,0,0,0,0,0,0,0,0,0,0,0,0,0,0,0,0,0,0,0,0,0,0,0,0,0,0,0,0,0,0,0,0,0,0,0,0,0,0,0,0,0,0,0,0,0,0,0,0,0,0,0,0,0,0,0,0,0,0,0,0,0,0,0,0,0,0,0,0,0,0,0],"sum_hessian":[2.0806826E3,2.0289299E3,5.175264E1,1.02189014E3,1.0070398E3,2.5988842E1,2.5763796E1,6.866675E2,3.3522266E2,7.700136E0,9.9933966E2,1.3605384E1,1.2383458E1,2.3875656E1,1.8881403E0,4.3214645E2,2.5452101E2,2.5715225E2,7.8070404E1,9.623026E2,3.703707E1,8.311651E0,5.2937326E0,7.8972774E0,4.4861803E0,1.9556943E2,2.3657701E2,6.2337738E1,1.9218327E2,2.55457E2,1.6952491E0,3.564676E1,4.2423645E1,4.6473718E2,4.975654E2,7.5403376E0,2.9496733E1,2.2446346E0,6.067016E0,3.5286155E0,1.7651175E0,1.4681894E0,6.429088E0,3.4673495E0,1.0188309E0,1.8582906E2,9.740377E0,1.8747885E2,4.9098167E1,1.8632215E1,4.3705524E1,1.4233067E2,4.985261E1,1.7260327E2,8.285373E1,1.5670757E1,1.9976002E1,3.4620872E1,7.8027716E0,2.8227054E2,1.8246666E2,8.39357E1,4.136297E2,4.9604006E0,2.579937E0,2.7528713E1,1.9680192E0,1.1457504E0,1.0988842E0,3.4526834E0,2.6143327E0,2.4535916E0,1.013758E0],"tree_param":{"num_deleted":"0","num_feature":"10","num_nodes":"73","size_leaf_vector":"1"}},{"base_weights":[3.5951498E-3,-1.0224475E-2,6.2691975E-1,5.6508448E-2,-1.4980257E-1,3.2251805E-1,8.1403404E-1,1.0569264E0,4.7918875E-2,-3.288771E-1,-3.4893353E-2,1.3359836E-1,2.513049E-1,1.1495567E-1,2.6568222E-1,3.6590582E-1,2.0850979E-2,9.732023E-2,-1.1973921E-1,-5.71455E-1,-2.2064257E-1,-7.621643E-3,-8.878431E-1,4.1815868E-1,-2.1588594E-1,1.9238274E-1,-1.841686E-1,-4.0871292E-2,2.9971132E-1,2.5600156E-1,-3.453447E-1,-3.4469554E-1,-3.1496525E-1,-1.3426756E-2,-4.0511945E-1,-7.541492E-2,2.7584088E-1,2.1550731E-1,-1.1196417E0,7.4273217E-1,-2.1758023E-1,-6.7291796E-1,3.8366416E-1,6.1799508E-2,-5.3768944E-2,1.0216253E-1,-5.9647375E-1,1.1566927E-1,-7.21328E-2,-1.381546E-1,8.9323215E-2,1.2146771E-1,-1.7596799E-1,-5.9642073E-2,1.6619115E-1,-2.3958164E-1,-6.1966445E-2,-3.5264164E-3,-1.2529697E-1,1.1844999E-1,-3.3492458E-1,-1.1418255E-1,-3.7515983E-1,2.7334956E-2,2.602085E-1,6.1234724E-2,-1.6965994E-1,1.2247223E-1,-4.9848914E-1,1.6730335E-1,-1.2845066E-2],"categories":[],"categories_nodes":[],"categories_segments":[],"categories_sizes":[],"default_left":[0,0,0,0,0,0,0,0,0,0,0,0,0,0,0,0,0,0,0,0,0,0,0,0,0,0,0,0,0,0,0,0,0,0,0,0,0,0,0,0,0,0,0,0,0,0,0,0,0,0,0,0,0,0,0,0,0,0,0,0,0,0,0,0,0,0,0,0,0,0,0],"id":10,"left_children":[1,3,5,7,9,11,13,15,17,19,21,23,-1,25,-1,-1,-1,27,29,31,33,35,37,39,41,-1,-1,43,45,47,49,51,-1,53,55,57,59,-1,61,63,65,67,69,-1,-1,-1,-1,-1,-1,-1,-1,-1,-1,-1,-1,-1,-1,-1,-1,-1,-1,-1,-1,-1,-1,-1,-1,-1,-1,-1,-1],"loss_changes":[1.7642574E1,1.8674017E1,2.2677097E0,1.160574E1,1.3332131E1,1.695167E0,1.2419224E0,1.7634258E0,1.1159716E1,6.525572E0,9.207469E0,1.5596626E0,0E0,1.7912966E0,0E0,0E0,0E0,2.9105013E1,2.6094158E1,8.049698E0,6.7534227E0,7.416463E0,5.370429E0,1.9123449E0,2.2559154E0,0E0,0E0,2.118021E1,4.0116142E1,7.5326276E0,1.4366009E1,1.0044192E1,0E0,8.977946E0,7.140682E0,6.778756E0,1.2781778E1,0E0,5.985718E-1,3.9551997E-1,6.4969516E-1,5.4888062E0,3.0518502E-1,0E0,0E0,0E0,0E0,0E0,0E0,0E0,0E0,0E0,0E0,0E0,0E0,0E0,0E0,0E0,0E0,0E0,0E0,0E0,0E0,0E0,0E0,0E0,0E0,0E0,0E0,0E0,0E0],"parents":[2147483647,0,0,1,1,2,2,3,3,4,4,5,5,6,6,7,7,8,8,9,9,10,10,11,11,13,13,17,17,18,18,19,19,20,20,21,21,22,22,23,23,24,24,27,27,28,28,29,29,30,30,31,31,33,33,34,34,35,35,36,36,38,38,39,39,40,40,41,41,42,42],"right_children":[2,4,6,8,10,12,14,16,18,20,22,24,-1,26,-1,-1,-1,28,30,32,34,36,38,40,42,-1,-1,44,46,48,50,52,-1,54,56,58,60,-1,62,64,66,68,70,-1,-1,-1,-1,-1,-1,-1,-1,-1,-1,-1,-1,-1,-1,-1,-1,-1,-1,-1,-1,-1,-1,-1,-1,-1,-1,-1,-1],"split_conditions":[3E0,2E0,3.834002E4,4.14E2,4.492888E4,1.5184355E5,3.2E1,9E0,2E0,3.6E1,1.915205E5,1E0,2.513049E-1,1.4722295E5,2.6568222E-1,3.6590582E-1,2.0850979E-2,1E0,8.044206E4,3.3E1,6.3E2,2E0,2.2E1,7E0,7E0,1.9238274E-1,-1.841686E-1,7.427487E4,1.7028838E5,8E0,1.589788E5,3E0,-3.1496525E-1,5E1,6.82E2,1.4526023E5,9E0,2.1550731E-1,2E0,3.8E1,8.02152E4,4E0,5.98E2,6.1799508E-2,-5.3768944E-2,1.0216253E-1,-5.9647375E-1,1.1566927E-1,-7.21328E-2,-1.381546E-1,8.9323215E-2,1.2146771E-1,-1.7596799E-1,-5.9642073E-2,1.6619115E-1,-2.3958164E-1,-6.1966445E-2,-3.5264164E-3,-1.2529697E-1,1.1844999E-1,-3.3492458E-1,-1.1418255E-1,-3.7515983E-1,2.7334956E-2,2.602085E-1,6.1234724E-2,-1.6965994E-1,1.2247223E-1,-4.9848914E-1,1.6730335E-1,-1.2845066E-2],"split_indices":[6,6,5,0,5,9,3,4,1,3,9,2,0,9,0,0,0,1,5,3,0,1,3,4,4,0,0,5,5,4,5,4,0,3,0,5,4,0,4,3,9,4,0,0,0,0,0,0,0,0,0,0,0,0,0,0,0,0,0,0,0,0,0,0,0,0,0,0,0,0,0],"split_type":[0,0,0,0,0,0,0,0,0,0,0,0,0,0,0,0,0,0,0,0,0,0,0,0,0,0,0,0,0,0,0,0,0,0,0,0,0,0,0,0,0,0,0,0,0,0,0,0,0,0,0,0,0,0,0,0,0,0,0,0,0,0,0,0,0,0,0,0,0,0,0],"sum_hessian":[2.0463574E3,2.0029342E3,4.342312E1,1.355472E3,6.474622E2,1.756752E1,2.5855597E1,1.0500011E1,1.344972E3,2.5234528E2,3.9511697E2,1.3775238E1,3.7922823E0,2.6433473E0,2.321225E1,8.812244E0,1.6877671E0,1.039189E3,3.0578308E2,7.653449E1,1.7581078E2,3.838528E2,1.1264147E1,7.4845757E0,6.2906623E0,1.6047069E0,1.0386404E0,6.1801184E2,4.2117706E2,1.1466927E2,1.9111378E2,5.3091408E1,2.3443083E1,8.330748E1,9.25033E1,3.1036053E2,7.349229E1,1.1558514E0,1.0108295E1,4.8434687E0,2.6411073E0,3.5001533E0,2.790509E0,2.2178952E2,3.9622232E2,4.1462885E2,6.5482273E0,9.111366E1,2.3555616E1,1.6232664E2,2.8787146E1,1.2787196E1,4.030421E1,6.3281685E1,2.0025791E1,3.0010685E1,6.249262E1,2.6255682E2,4.7803722E1,6.836567E1,5.126622E0,2.1089017E0,7.999394E0,1.0555745E0,3.787894E0,1.3809129E0,1.2601943E0,1.9523518E0,1.5478015E0,1.7633835E0,1.0271256E0],"tree_param":{"num_deleted":"0","num_feature":"10","num_nodes":"71","size_leaf_vector":"1"}},{"base_weights":[1.7689037E-3,-1.258577E-1,6.017583E-2,-3.4294462E-1,-6.3729025E-2,1.5172271E-1,-3.2633483E-2,-1.2914772E-1,-6.2975657E-1,6.1739784E-1,-1.3430232E-1,1.09378286E-1,6.566053E-1,3.0886686E-1,-1.0245828E-1,-4.880026E-1,3.1934E-1,8.409233E-1,-7.729484E-1,-5.924526E-1,9.3759227E-1,-1.9653691E-1,2.8845668E-1,8.9568794E-2,7.790229E-1,7.712306E-1,6.537065E-2,5.027797E-1,-1.6677013E-1,4.355148E-2,-2.5938898E-1,-1.0210189E0,-7.739406E-2,-8.285973E-1,6.4823323E-1,-2.729597E-1,6.6169333E-1,-5.101429E-1,-9.991389E-1,-3.471111E-1,4.6148214E-1,1.5957264E0,-8.694867E-2,-8.629058E-2,-5.474725E-1,1.3303471E0,1.5004534E-2,2.697503E-1,1.9751068E-2,-4.2551705E-1,1.0254875E0,8.913915E-1,4.916675E-1,-2.8381008E-1,4.140757E-1,5.6624854E-1,-3.1273982E-1,1.4060985E-1,-6.0138094E-1,-1.6051745E-1,2.100226E-1,-1.6875939E-1,-9.791872E-1,-3.5954055E-1,4.3257184E-2,2.2260351E-1,-1.5284474E-1,6.4466886E-2,-3.486133E-1,-3.1547755E-1,2.682982E-1,2.0743102E-1,-2.8637552E-1,-2.8955555E-1,-1.5764592E-2,-3.8557315E-1,-1.7174962E-1,2.6917794E-1,9.726358E-3,5.42616E-1,-2.436089E-1,-3.3994666E-1,3.503073E-1,-1.2443992E-2,-2.5589204E-1,1.7492531E-1,-2.0564634E-1,6.646374E-1,1.9514067E-1,1.4369585E-1,-1.4069246E-1,-1.1248413E-1,1.0776948E-1,-2.7312994E-1,1.3431534E-2,4.693729E-2,3.5501933E-1,3.080498E-1,2.07609E-1,2.4181338E-1,-8.8805325E-2,2.0795521E-1,-1.09264016E-1,-1.1428892E-1,1.834322E-1,-1.3464297E-1,3.907598E-1,-4.5651242E-1,-1.6214438E-2,-9.055243E-3,-2.1360153E-1,1.14772156E-1,-4.4319443E-2,-4.249589E-2,-3.8740245E-1,-4.7279665E-1,-1.6586672E-1],"categories":[],"categories_nodes":[],"categories_segments":[],"categories_sizes":[],"default_left":[0,0,0,0,0,0,0,0,0,0,0,0,0,0,0,0,0,0,0,0,0,0,0,0,0,0,0,0,0,0,0,0,0,0,0,0,0,0,0,0,0,0,0,0,0,0,0,0,0,0,0,0,0,0,0,0,0,0,0,0,0,0,0,0,0,0,0,0,0,0,0,0,0,0,0,0,0,0,0,0,0,0,0,0,0,0,0,0,0,0,0,0,0,0,0,0,0,0,0,0,0,0,0,0,0,0,0,0,0,0,0,0,0,0,0,0,0],"id":11,"left_children":[1,3,5,7,9,11,13,15,17,19,21,23,25,27,29,31,33,35,37,39,41,43,45,47,49,51,53,55,57,59,61,63,65,67,69,71,-1,73,75,-1,77,79,81,83,85,87,89,91,93,-1,95,97,99,-1,101,103,-1,105,107,109,111,113,115,-1,-1,-1,-1,-1,-1,-1,-1,-1,-1,-1,-1,-1,-1,-1,-1,-1,-1,-1,-1,-1,-1,-1,-1,-1,-1,-1,-1,-1,-1,-1,-1,-1,-1,-1,-1,-1,-1,-1,-1,-1,-1,-1,-1,-1,-1,-1,-1,-1,-1,-1,-1,-1,-1],"loss_changes":[1.4896923E1,8.440533E0,1.165344E1,8.465549E0,2.3591248E1,1.4687497E1,1.6285107E1,1.3210489E1,1.3131351E1,1.8411354E1,1.1737303E1,8.395431E0,3.5563736E0,1.0778969E1,1.2995535E1,9.869367E0,1.4377588E1,9.324003E0,2.7318535E0,6.638264E0,2.4975597E1,1.4948095E1,1.63263E1,7.806017E0,1.13143E1,1.0561123E0,3.825146E0,8.693659E0,4.67133E0,1.0035051E1,1.7661028E1,4.24555E0,9.851828E0,3.2430725E0,1.3095008E1,3.321673E0,0E0,5.6269937E0,2.714203E0,0E0,7.736707E-1,1.2996895E1,2.1478481E1,1.0137899E1,1.4827438E1,5.729767E0,1.0657054E1,1.0133937E1,1.0481613E1,0E0,2.1408405E0,9.628868E-2,4.1023264E0,0E0,1.9761235E0,3.6579876E0,0E0,1.4912863E1,7.1779723E0,9.5261135E0,1.0092167E1,7.239117E0,6.850292E0,0E0,0E0,0E0,0E0,0E0,0E0,0E0,0E0,0E0,0E0,0E0,0E0,0E0,0E0,0E0,0E0,0E0,0E0,0E0,0E0,0E0,0E0,0E0,0E0,0E0,0E0,0E0,0E0,0E0,0E0,0E0,0E0,0E0,0E0,0E0,0E0,0E0,0E0,0E0,0E0,0E0,0E0,0E0,0E0,0E0,0E0,0E0,0E0,0E0,0E0,0E0,0E0,0E0,0E0],"parents":[2147483647,0,0,1,1,2,2,3,3,4,4,5,5,6,6,7,7,8,8,9,9,10,10,11,11,12,12,13,13,14,14,15,15,16,16,17,17,18,18,19,19,20,20,21,21,22,22,23,23,24,24,25,25,26,26,27,27,28,28,29,29,30,30,31,31,32,32,33,33,34,34,35,35,37,37,38,38,40,40,41,41,42,42,43,43,44,44,45,45,46,46,47,47,48,48,50,50,51,51,52,52,54,54,55,55,57,57,58,58,59,59,60,60,61,61,62,62],"right_children":[2,4,6,8,10,12,14,16,18,20,22,24,26,28,30,32,34,36,38,40,42,44,46,48,50,52,54,56,58,60,62,64,66,68,70,72,-1,74,76,-1,78,80,82,84,86,88,90,92,94,-1,96,98,100,-1,102,104,-1,106,108,110,112,114,116,-1,-1,-1,-1,-1,-1,-1,-1,-1,-1,-1,-1,-1,-1,-1,-1,-1,-1,-1,-1,-1,-1,-1,-1,-1,-1,-1,-1,-1,-1,-1,-1,-1,-1,-1,-1,-1,-1,-1,-1,-1,-1,-1,-1,-1,-1,-1,-1,-1,-1,-1,-1,-1,-1],"split_conditions":[3.6E1,4.819706E4,1E0,2.658956E4,6.104853E4,5.4E1,3.324597E4,1.611996E4,1E0,5.92E2,1.515324E5,1.7811181E5,6.5E1,7E0,1E0,1E0,3E0,2E0,3.1E1,1.4459195E5,6.9E2,1.2359322E5,1.553037E5,5.82E2,5.79E2,1.1945203E5,5.33E2,6.4E1,6.74E2,1.0998809E5,7.59E2,7.75E2,5.8E2,2.5E1,1E0,5.12E2,6.6169333E-1,6.63E2,4.03203E4,-3.471111E-1,1.4819716E5,1.371382E5,7.69E2,7.97E2,6.857488E4,1E0,1E0,3.8E1,5.88E2,-4.2551705E-1,4E0,8.463564E4,7.11E2,-2.8381008E-1,1.4290344E5,2.0792E3,-3.1273982E-1,6.45E2,7.21E2,2E0,6.77E2,1.7028838E5,1E0,-3.5954055E-1,4.3257184E-2,2.2260351E-1,-1.5284474E-1,6.4466886E-2,-3.486133E-1,-3.1547755E-1,2.682982E-1,2.0743102E-1,-2.8637552E-1,-2.8955555E-1,-1.5764592E-2,-3.8557315E-1,-1.7174962E-1,2.6917794E-1,9.726358E-3,5.42616E-1,-2.436089E-1,-3.3994666E-1,3.503073E-1,-1.2443992E-2,-2.5589204E-1,1.7492531E-1,-2.0564634E-1,6.646374E-1,1.9514067E-1,1.4369585E-1,-1.4069246E-1,-1.1248413E-1,1.0776948E-1,-2.7312994E-1,1.3431534E-2,4.693729E-2,3.5501933E-1,3.080498E-1,2.07609E-1,2.4181338E-1,-8.8805325E-2,2.0795521E-1,-1.09264016E-1,-1.1428892E-1,1.834322E-1,-1.3464297E-1,3.907598E-1,-4.5651242E-1,-1.6214438E-2,-9.055243E-3,-2.1360153E-1,1.14772156E-1,-4.4319443E-2,-4.249589E-2,-3.8740245E-1,-4.7279665E-1,-1.6586672E-1],"split_indices":[3,9,8,9,9,3,9,9,4,0,5,5,3,4,2,1,4,6,3,5,0,5,5,0,0,5,0,3,0,9,0,0,0,3,7,0,0,0,9,0,5,5,0,0,9,7,2,3,0,0,4,9,0,0,9,9,0,0,0,1,0,5,1,0,0,0,0,0,0,0,0,0,0,0,0,0,0,0,0,0,0,0,0,0,0,0,0,0,0,0,0,0,0,0,0,0,0,0,0,0,0,0,0,0,0,0,0,0,0,0,0,0,0,0,0,0,0],"split_type":[0,0,0,0,0,0,0,0,0,0,0,0,0,0,0,0,0,0,0,0,0,0,0,0,0,0,0,0,0,0,0,0,0,0,0,0,0,0,0,0,0,0,0,0,0,0,0,0,0,0,0,0,0,0,0,0,0,0,0,0,0,0,0,0,0,0,0,0,0,0,0,0,0,0,0,0,0,0,0,0,0,0,0,0,0,0,0,0,0,0,0,0,0,0,0,0,0,0,0,0,0,0,0,0,0,0,0,0,0,0,0,0,0,0,0,0,0],"sum_hessian":[1.9964235E3,6.264328E2,1.3699906E3,1.3838275E2,4.8805008E2,6.8936646E2,6.806242E2,8.0114006E1,5.8268738E1,4.509308E1,4.42957E2,6.371458E2,5.2220676E1,1.1495871E2,5.6566547E2,4.445527E1,3.5658737E1,4.737598E0,5.3531143E1,9.258744E0,3.5834335E1,3.86583E2,5.6373993E1,6.199404E2,1.7205381E1,4.3485508E1,8.7351675E0,8.16242E1,3.333451E1,2.9340305E2,2.7226242E2,1.869737E1,2.5757898E1,7.602913E0,2.8055824E1,3.048999E0,1.688599E0,2.6267235E1,2.7263906E1,5.9653354E0,3.2934086E0,2.1479227E1,1.4355109E1,2.951177E2,9.146528E1,1.0916315E1,4.5457676E1,1.723321E2,4.4760828E2,1.255625E0,1.5949757E1,2.8882713E1,1.4602797E1,1.8003469E0,6.9348207E0,7.901243E1,2.6117716E0,1.992146E1,1.3413051E1,1.3183215E2,1.615709E2,2.4291191E2,2.9350513E1,1.6201504E1,2.4958673E0,8.645478E0,1.7112421E1,1.9272718E0,5.675641E0,3.1341872E0,2.4921638E1,1.2566441E0,1.7923548E0,1.2614162E1,1.3653071E1,1.5115188E1,1.214872E1,1.0925441E0,2.2008646E0,1.9962143E1,1.5170852E0,7.880566E0,6.474543E0,2.7981723E2,1.5300483E1,9.600194E0,8.186508E1,3.761167E0,7.155148E0,2.3213583E1,2.2244093E1,2.0614916E1,1.517172E2,1.0797751E1,4.3681055E2,2.758678E0,1.3191079E1,1.4726978E1,1.4155734E1,1.0420507E1,4.1822896E0,5.1848063E0,1.7500147E0,3.2597282E0,7.57527E1,1.3624011E1,6.297448E0,4.3382173E0,9.074833E0,1.07484924E2,2.4347225E1,1.0895201E2,5.2618896E1,2.3828436E2,4.6275473E0,1.1105836E1,1.8244678E1],"tree_param":{"num_deleted":"0","num_feature":"10","num_nodes":"117","size_leaf_vector":"1"}},{"base_weights":[-1.6192318E-3,-1.2609141E-2,5.6163514E-1,-2.0696454E-2,7.8011423E-1,3.353558E-1,8.132645E-1,3.1521726E-2,-1.308876E-1,2.5073785E-1,3.27416E-1,4.896575E-1,7.155208E-2,2.7017307E-1,-6.1045815E-3,9.385011E-1,2.4695272E-2,-2.2872587E-1,8.462415E-3,9.324461E-1,-2.497022E-1,6.5417266E-1,-1.8915717E-1,3.0031177E-1,-1.939269E-1,3.3431756E-1,1.6646057E-2,9.886444E-2,-5.5453114E-2,-1.7374071E-1,-5.1592875E-1,8.8231874E-1,-8.6393714E-2,8.2292676E-2,3.211904E-1,2.1206945E-1,-6.411955E-1,2.4391904E-1,1.4726911E-1,-3.0961987E-1,1.8701734E-1,1.9470824E-1,-9.767904E-2,1.983133E-2,1.3323756E-1,-3.038227E-2,8.89441E-2,-7.016091E-2,1.314248E-1,-2.4451852E-1,-1.5482864E-2,-1.7118743E-1,3.1606758E-1,-3.0806458E-1,-1.1640857E-2,-3.222757E-1,8.1264846E-2,-6.2240835E-2,1.12174734E-1,-1.6298035E-1,1.7833835E-1],"categories":[],"categories_nodes":[],"categories_segments":[],"categories_sizes":[],"default_left":[0,0,0,0,0,0,0,0,0,0,0,0,0,0,0,0,0,0,0,0,0,0,0,0,0,0,0,0,0,0,0,0,0,0,0,0,0,0,0,0,0,0,0,0,0,0,0,0,0,0,0,0,0,0,0,0,0,0,0,0,0],"id":12,"left_children":[1,3,5,7,9,11,13,15,17,19,-1,21,23,-1,-1,25,27,29,31,33,35,37,39,41,-1,-1,-1,43,45,47,49,51,53,-1,-1,-1,55,-1,57,-1,-1,-1,59,-1,-1,-1,-1,-1,-1,-1,-1,-1,-1,-1,-1,-1,-1,-1,-1,-1,-1],"loss_changes":[1.2141318E1,1.2349136E1,1.8645964E0,1.09670105E1,2.9318743E0,8.387463E-1,1.2608671E0,7.9854045E0,8.356439E0,3.1331153E0,0E0,1.6171596E0,1.6876241E0,0E0,0E0,1.434741E0,7.643345E0,5.596216E0,2.1108173E1,5.2834988E-2,2.5846503E0,7.6529264E-1,2.961408E0,1.1152216E0,0E0,0E0,0E0,7.522576E0,9.998718E0,1.1275126E1,7.9231043E0,6.8049374E0,1.0245546E1,0E0,0E0,0E0,2.0932403E0,0E0,3.8659942E-1,0E0,0E0,0E0,1.6825802E0,0E0,0E0,0E0,0E0,0E0,0E0,0E0,0E0,0E0,0E0,0E0,0E0,0E0,0E0,0E0,0E0,0E0,0E0],"parents":[2147483647,0,0,1,1,2,2,3,3,4,4,5,5,6,6,7,7,8,8,9,9,11,11,12,12,15,15,16,16,17,17,18,18,19,19,20,20,21,21,22,22,23,23,27,27,28,28,29,29,30,30,31,31,32,32,36,36,38,38,42,42],"right_children":[2,4,6,8,10,12,14,16,18,20,-1,22,24,-1,-1,26,28,30,32,34,36,38,40,42,-1,-1,-1,44,46,48,50,52,54,-1,-1,-1,56,-1,58,-1,-1,-1,60,-1,-1,-1,-1,-1,-1,-1,-1,-1,-1,-1,-1,-1,-1,-1,-1,-1,-1],"split_conditions":[3E0,1.9335486E5,4.3E1,2E0,6.41E2,1E0,6.6E1,4.14E2,1.0779885E5,5.109956E4,3.27416E-1,1.7266839E5,4.1E1,2.7017307E-1,-6.1045815E-3,9E0,1E0,7.43E2,1.1054043E5,2.430295E4,2.2E1,8E0,4E0,1E0,-1.939269E-1,3.3431756E-1,1.6646057E-2,5E1,1.7729592E5,7.2E2,1.2324211E5,1E0,1.1295726E5,8.2292676E-2,3.211904E-1,2.1206945E-1,4.1E1,2.4391904E-1,6.08E2,-3.0961987E-1,1.8701734E-1,1.9470824E-1,3.8E1,1.983133E-2,1.3323756E-1,-3.038227E-2,8.89441E-2,-7.016091E-2,1.314248E-1,-2.4451852E-1,-1.5482864E-2,-1.7118743E-1,3.1606758E-1,-3.0806458E-1,-1.1640857E-2,-3.222757E-1,8.1264846E-2,-6.2240835E-2,1.12174734E-1,-1.6298035E-1,1.7833835E-1],"split_indices":[6,5,3,6,0,2,3,0,5,9,0,9,3,0,0,4,8,0,5,9,3,4,4,8,0,0,0,3,9,0,9,1,5,0,0,0,3,0,0,0,0,0,3,0,0,0,0,0,0,0,0,0,0,0,0,0,0,0,0,0,0],"split_type":[0,0,0,0,0,0,0,0,0,0,0,0,0,0,0,0,0,0,0,0,0,0,0,0,0,0,0,0,0,0,0,0,0,0,0,0,0,0,0,0,0,0,0,0,0,0,0,0,0,0,0,0,0,0,0,0,0,0,0,0,0],"sum_hessian":[1.9592605E3,1.922723E3,3.65375E1,1.9042697E3,1.8453344E1,2.0466026E1,1.607147E1,1.2924894E3,6.1178033E2,7.501382E0,1.0951962E1,1.2372861E1,8.093165E0,1.4475032E1,1.5964391E0,8.635803E0,1.2838535E3,3.59049E2,2.527313E2,2.810126E0,4.6912556E0,9.988407E0,2.3844543E0,6.5787745E0,1.5143912E0,6.982836E0,1.6529673E0,6.6667773E2,6.1717584E2,3.0270157E2,5.6347446E1,2.39345E1,2.2879678E2,1.0056496E0,1.8044765E0,1.128401E0,3.5628545E0,7.1448474E0,2.8435595E0,1.0377593E0,1.346695E0,3.1702619E0,3.4085126E0,6.099903E2,5.6687386E1,5.467077E2,7.046814E1,2.761771E2,2.6524475E1,3.3810184E1,2.253726E1,2.277548E0,2.1656952E1,1.0028896E1,2.187679E2,2.2952554E0,1.2675992E0,1.1415157E0,1.7020437E0,2.2044275E0,1.2040851E0],"tree_param":{"num_deleted":"0","num_feature":"10","num_nodes":"61","size_leaf_vector":"1"}},{"base_weights":[-2.4368668E-4,-9.927581E-2,4.490627E-2,-2.1143657E-1,8.373668E-3,5.2379414E-2,-7.8585184E-1,-6.1026573E-1,-1.0906748E-1,1.0641308E0,-4.483402E-2,4.237262E-2,5.70548E-1,-2.0434467E-2,-3.2344165E-1,-2.8005347E-1,-1.2129415E0,7.89212E-2,-3.777158E-1,-2.520177E-1,1.2827522E0,-1.163447E-2,-6.908928E-1,3.344047E-2,6.0620236E-1,2.975578E-1,2.7955613E-1,-4.4358075E-1,1.9777487E-1,-6.840228E-1,2.8727964E-1,1.4732243E-1,-4.1191733E-1,2.9719716E-1,-2.4101791E-1,-5.205585E-1,4.0699136E-1,2.9419234E-1,1.6396477E0,-3.3295885E-1,1.5883166E-2,-1.1455574E0,5.088901E-1,1.0895611E-1,-3.320868E-2,-4.434773E-1,9.000129E-1,5.4326504E-1,-1.0030285E-1,-2.7006775E-1,8.4286034E-2,-3.2509673E-1,-4.668018E-2,2.230594E-1,-1.8575154E-1,3.2521138E-1,2.0973152E-2,2.6703784E-3,-2.6704133E-1,-3.2307386E-2,-2.2009963E-1,-3.3324265E-1,2.6401842E-1,-2.4707113E-1,3.041737E-1,1.5507212E-1,6.031894E-1,4.284002E-2,-4.2161074E-2,2.0272882E-1,-4.2337987E-1,-9.212226E-2,2.6076606E-1,4.395803E-2,-1.3876653E-1,-2.9040428E-2,5.633613E-2,2.3250064E-1,-3.705371E-1,-8.111632E-3,3.005067E-1,2.3709598E-1,3.4158498E-2,2.1445097E-1,-1.8334548E-1],"categories":[],"categories_nodes":[],"categories_segments":[],"categories_sizes":[],"default_left":[0,0,0,0,0,0,0,0,0,0,0,0,0,0,0,0,0,0,0,0,0,0,0,0,0,0,0,0,0,0,0,0,0,0,0,0,0,0,0,0,0,0,0,0,0,0,0,0,0,0,0,0,0,0,0,0,0,0,0,0,0,0,0,0,0,0,0,0,0,0,0,0,0,0,0,0,0,0,0,0,0,0,0,0,0],"id":13,"left_children":[1,3,5,7,9,11,13,15,17,19,21,23,25,27,-1,29,31,33,35,-1,37,39,41,43,45,47,-1,49,-1,51,53,-1,-1,55,57,59,61,63,65,-1,67,69,71,73,75,77,79,81,83,-1,-1,-1,-1,-1,-1,-1,-1,-1,-1,-1,-1,-1,-1,-1,-1,-1,-1,-1,-1,-1,-1,-1,-1,-1,-1,-1,-1,-1,-1,-1,-1,-1,-1,-1,-1],"loss_changes":[8.644273E0,7.3113675E0,8.285183E0,1.2039869E1,1.7454638E1,6.8046646E0,2.640499E0,1.1670044E1,1.2007934E1,7.283745E0,6.340074E0,6.4921284E0,2.1758518E0,1.5314589E0,0E0,9.429546E0,6.420496E0,9.87389E0,1.117582E1,0E0,4.3753014E0,8.555461E0,8.464609E0,6.415763E0,6.600452E0,1.5830473E0,0E0,1.3291554E0,0E0,4.863016E0,7.68111E0,0E0,0E0,1.4926235E1,9.332302E0,7.2404118E0,1.2196445E1,4.7535243E0,3.0831985E0,0E0,5.5111604E0,6.1731997E0,1.6379308E0,1.2897509E1,9.539555E0,5.845139E0,1.5390263E0,9.52029E-1,3.274268E0,0E0,0E0,0E0,0E0,0E0,0E0,0E0,0E0,0E0,0E0,0E0,0E0,0E0,0E0,0E0,0E0,0E0,0E0,0E0,0E0,0E0,0E0,0E0,0E0,0E0,0E0,0E0,0E0,0E0,0E0,0E0,0E0,0E0,0E0,0E0,0E0],"parents":[2147483647,0,0,1,1,2,2,3,3,4,4,5,5,6,6,7,7,8,8,9,9,10,10,11,11,12,12,13,13,15,15,16,16,17,17,18,18,20,20,21,21,22,22,23,23,24,24,25,25,27,27,29,29,30,30,33,33,34,34,35,35,36,36,37,37,38,38,40,40,41,41,42,42,43,43,44,44,45,45,46,46,47,47,48,48],"right_children":[2,4,6,8,10,12,14,16,18,20,22,24,26,28,-1,30,32,34,36,-1,38,40,42,44,46,48,-1,50,-1,52,54,-1,-1,56,58,60,62,64,66,-1,68,70,72,74,76,78,80,82,84,-1,-1,-1,-1,-1,-1,-1,-1,-1,-1,-1,-1,-1,-1,-1,-1,-1,-1,-1,-1,-1,-1,-1,-1,-1,-1,-1,-1,-1,-1,-1,-1,-1,-1,-1,-1],"split_conditions":[3.6E1,1.0779885E5,7.2E1,5.76E2,1.0888329E5,3E0,5.48E2,5.41E2,7.187219E4,3.951953E4,1.8897481E5,1.8589155E5,1.0476341E5,5.38E2,-3.2344165E-1,1.3246755E5,5.55788E3,2E0,1.7785256E5,-2.520177E-1,1.0826937E5,2.2E1,1.5484623E5,5E0,4E0,1E0,2.7955613E-1,7.6E1,1.9777487E-1,6.334975E4,3.834002E4,1.4732243E-1,-4.1191733E-1,6.13E2,3.3E1,8.796742E4,8.796742E4,5E0,2.9E1,-3.3295885E-1,3.2E1,1.1207086E5,1E0,7.9E2,7.27E2,7.573225E4,1.738421E4,6.46E2,4E0,-2.7006775E-1,8.4286034E-2,-3.2509673E-1,-4.668018E-2,2.230594E-1,-1.8575154E-1,3.2521138E-1,2.0973152E-2,2.6703784E-3,-2.6704133E-1,-3.2307386E-2,-2.2009963E-1,-3.3324265E-1,2.6401842E-1,-2.4707113E-1,3.041737E-1,1.5507212E-1,6.031894E-1,4.284002E-2,-4.2161074E-2,2.0272882E-1,-4.2337987E-1,-9.212226E-2,2.6076606E-1,4.395803E-2,-1.3876653E-1,-2.9040428E-2,5.633613E-2,2.3250064E-1,-3.705371E-1,-8.111632E-3,3.005067E-1,2.3709598E-1,3.4158498E-2,2.1445097E-1,-1.8334548E-1],"split_indices":[3,5,3,0,5,6,0,0,5,9,9,5,5,0,0,9,9,6,9,0,5,3,5,4,4,2,0,3,0,5,5,0,0,0,3,5,5,4,3,0,3,5,8,0,0,9,9,0,4,0,0,0,0,0,0,0,0,0,0,0,0,0,0,0,0,0,0,0,0,0,0,0,0,0,0,0,0,0,0,0,0,0,0,0,0],"split_type":[0,0,0,0,0,0,0,0,0,0,0,0,0,0,0,0,0,0,0,0,0,0,0,0,0,0,0,0,0,0,0,0,0,0,0,0,0,0,0,0,0,0,0,0,0,0,0,0,0,0,0,0,0,0,0,0,0,0,0,0,0,0,0,0,0,0,0,0,0,0,0,0,0,0,0,0,0,0,0,0,0,0,0,0,0],"sum_hessian":[1.9312842E3,6.043974E2,1.3268868E3,2.9552435E2,3.0887302E2,1.3159857E3,1.0901094E1,5.93471E1,2.3617725E2,1.3908013E1,2.9496503E2,1.2921144E3,2.3871334E1,3.308079E0,7.5930157E0,3.9286377E1,2.0060724E1,1.393631E2,9.681415E1,1.1395985E0,1.27684145E1,2.815165E2,1.344851E1,1.2730068E3,1.9107578E1,1.4636248E1,9.2350855E0,2.2528868E0,1.0551924E0,2.2826847E1,1.645953E1,1.5455378E0,1.8515186E1,8.288591E1,5.647719E1,8.2189545E1,1.46246E1,3.8708668E0,8.897548E0,5.9199176E0,2.755966E2,9.785453E0,3.663057E0,5.965086E2,6.764983E2,4.0672727E0,1.5040305E1,8.822352E0,5.813895E0,1.2331759E0,1.0197109E0,1.2399025E1,1.0427822E1,1.1068211E1,5.3913193E0,1.7731611E1,6.5154305E1,4.1489502E1,1.4987687E1,2.8493122E1,5.3696423E1,3.1547613E0,1.1469838E1,1.4596543E0,2.4112124E0,2.8042223E0,6.0933256E0,1.5219496E2,1.2340163E2,1.0493512E0,8.736101E0,1.1673657E0,2.4956915E0,5.6041125E2,3.6097336E1,5.257677E2,1.5073055E2,1.6100912E0,2.4571815E0,1.5590863E0,1.3481219E1,5.06673E0,3.7556226E0,2.0860167E0,3.7278786E0],"tree_param":{"num_deleted":"0","num_feature":"10","num_nodes":"85","size_leaf_vector":"1"}},{"base_weights":[-1.5793225E-3,6.382869E-2,-6.778647E-2,-1.0253929E-2,1.3851804E-1,-3.8721625E-2,-3.1959328E-1,4.8003934E-2,-7.7963275E-1,9.022428E-1,1.1075284E-1,-2.1378192E-1,3.5657834E-3,-4.6655542E-1,3.403777E-1,-9.19854E-2,2.2615291E-1,-9.3982136E-1,8.162083E-1,6.218099E-1,6.434167E-1,2.0928754E-2,3.5898536E-1,-1.2404018E-1,-7.767239E-1,2.3587633E-2,-5.371301E-1,-2.4525043E-1,-9.472639E-1,1.1012073E0,-6.695572E-2,-5.120736E-2,-1.1800576E0,3.6330557E-1,-2.8921917E-1,-3.2552958E-1,-1.252867E0,3.6481896E-1,5.671478E-2,-7.300659E-2,3.4954703E-1,2.0945358E-1,-1.22424155E-1,1.8296316E-1,9.590381E-1,-3.271333E-1,1.5401651E-1,-9.060595E-1,2.910679E-1,-3.060923E-1,5.411399E-2,1.6534708E-1,-1.0064601E0,5.3770896E-2,-6.4237213E-1,-1.2851732E0,-2.3208952E-1,5.036263E-1,-1.9878353E-1,3.1815934E-1,-2.693106E-1,3.459592E-1,-2.1315452E-2,2.907284E-2,-4.8106182E-1,2.9731187E-1,5.9279893E-2,-2.8910026E-1,6.820793E-2,-2.2536556E-1,1.2379293E-2,-4.9393442E-1,-1.9126882E-1,2.9799125E-1,-2.4289955E-1,1.11296415E-1,-4.452931E-2,-4.5362687E-1,-2.6211254E-2,1.21329516E-1,-7.479658E-2,3.7475607E-1,1.3301277E-1,-1.8069504E-1,3.9048053E-2,5.182112E-1,-1.9201873E-2,-1.1244815E-1,-3.5878703E-1,-4.470096E-3,-2.5052613E-1,1.6340378E-1,4.855487E-3,1.9103749E-1,-2.2059545E-1,1.86736E-1,-4.0389693E-1,1.19608626E-1,-1.0803779E-1,-3.232682E-1,2.3943862E-2,6.592514E-3,-4.241937E-1,-4.7903183E-1,1.0289541E-1,-1.4106187E-1,2.4146517E-1],"categories":[],"categories_nodes":[],"categories_segments":[],"categories_sizes":[],"default_left":[0,0,0,0,0,0,0,0,0,0,0,0,0,0,0,0,0,0,0,0,0,0,0,0,0,0,0,0,0,0,0,0,0,0,0,0,0,0,0,0,0,0,0,0,0,0,0,0,0,0,0,0,0,0,0,0,0,0,0,0,0,0,0,0,0,0,0,0,0,0,0,0,0,0,0,0,0,0,0,0,0,0,0,0,0,0,0,0,0,0,0,0,0,0,0,0,0,0,0,0,0,0,0,0,0,0,0],"id":14,"left_children":[1,3,5,7,9,11,13,15,17,19,21,23,25,27,29,31,33,35,37,-1,39,41,43,45,47,49,51,53,55,57,59,61,63,65,67,69,71,-1,-1,73,-1,75,77,79,81,83,85,87,-1,89,91,93,95,97,99,101,103,-1,-1,-1,105,-1,-1,-1,-1,-1,-1,-1,-1,-1,-1,-1,-1,-1,-1,-1,-1,-1,-1,-1,-1,-1,-1,-1,-1,-1,-1,-1,-1,-1,-1,-1,-1,-1,-1,-1,-1,-1,-1,-1,-1,-1,-1,-1,-1,-1,-1],"loss_changes":[8.277242E0,5.321637E0,6.9395494E0,2.171564E1,1.0054363E1,6.3133545E0,9.679097E0,1.1256927E1,9.484835E0,3.7129784E0,1.0320702E1,8.286012E0,7.458625E0,8.352999E0,5.7931175E0,1.1165225E1,1.4138876E1,5.641222E0,6.844387E-1,0E0,5.726243E0,9.246509E0,1.2817709E1,8.199188E0,5.990781E0,6.701022E0,8.277459E0,6.756912E0,5.7654037E0,7.7261577E0,3.2430253E0,5.9353805E0,5.0731983E0,1.6161541E1,1.4952355E1,1.8999712E0,3.911499E0,0E0,0E0,6.5388556E0,0E0,8.59627E0,9.339814E0,9.325121E0,3.5854073E0,1.0612548E1,2.1237158E1,2.875328E0,0E0,8.681379E0,1.131819E1,5.0168533E0,9.080912E0,4.8857107E0,7.752619E0,2.862978E0,7.823968E0,0E0,0E0,0E0,2.9222167E0,0E0,0E0,0E0,0E0,0E0,0E0,0E0,0E0,0E0,0E0,0E0,0E0,0E0,0E0,0E0,0E0,0E0,0E0,0E0,0E0,0E0,0E0,0E0,0E0,0E0,0E0,0E0,0E0,0E0,0E0,0E0,0E0,0E0,0E0,0E0,0E0,0E0,0E0,0E0,0E0,0E0,0E0,0E0,0E0,0E0,0E0],"parents":[2147483647,0,0,1,1,2,2,3,3,4,4,5,5,6,6,7,7,8,8,9,9,10,10,11,11,12,12,13,13,14,14,15,15,16,16,17,17,18,18,20,20,21,21,22,22,23,23,24,24,25,25,26,26,27,27,28,28,29,29,30,30,31,31,32,32,33,33,34,34,35,35,36,36,39,39,41,41,42,42,43,43,44,44,45,45,46,46,47,47,49,49,50,50,51,51,52,52,53,53,54,54,55,55,56,56,60,60],"right_children":[2,4,6,8,10,12,14,16,18,20,22,24,26,28,30,32,34,36,38,-1,40,42,44,46,48,50,52,54,56,58,60,62,64,66,68,70,72,-1,-1,74,-1,76,78,80,82,84,86,88,-1,90,92,94,96,98,100,102,104,-1,-1,-1,106,-1,-1,-1,-1,-1,-1,-1,-1,-1,-1,-1,-1,-1,-1,-1,-1,-1,-1,-1,-1,-1,-1,-1,-1,-1,-1,-1,-1,-1,-1,-1,-1,-1,-1,-1,-1,-1,-1,-1,-1,-1,-1,-1,-1,-1,-1],"split_conditions":[1E0,1.0873296E5,7.65E2,1.0056437E5,4.61E2,3.3E1,1.428622E5,6.75E2,1.5799316E5,2.8E1,8E0,3.2E1,1E1,1.1593087E5,3.2E1,6.7E2,2E0,3E0,2.8E1,6.218099E-1,4E1,6.31E2,7.31E2,1.2124076E5,1.9792305E5,5.12E2,7.355144E4,1E0,4.7E1,8.90874E4,1.436729E5,7.3888E2,2.088196E4,6.94E2,7.29E2,4E1,2E0,3.6481896E-1,5.671478E-2,1.2952657E5,3.4954703E-1,1.1945203E5,6.36E2,6.49E2,4.3E1,6.74E2,1.2331139E5,7.89558E4,2.910679E-1,4.85E2,5.37E2,1.0746756E5,4.72E2,7.696812E4,4.4E1,2.185828E4,1E0,5.036263E-1,-1.9878353E-1,3.1815934E-1,1.915205E5,3.459592E-1,-2.1315452E-2,2.907284E-2,-4.8106182E-1,2.9731187E-1,5.9279893E-2,-2.8910026E-1,6.820793E-2,-2.2536556E-1,1.2379293E-2,-4.9393442E-1,-1.9126882E-1,2.9799125E-1,-2.4289955E-1,1.11296415E-1,-4.452931E-2,-4.5362687E-1,-2.6211254E-2,1.21329516E-1,-7.479658E-2,3.7475607E-1,1.3301277E-1,-1.8069504E-1,3.9048053E-2,5.182112E-1,-1.9201873E-2,-1.1244815E-1,-3.5878703E-1,-4.470096E-3,-2.5052613E-1,1.6340378E-1,4.855487E-3,1.9103749E-1,-2.2059545E-1,1.86736E-1,-4.0389693E-1,1.19608626E-1,-1.0803779E-1,-3.232682E-1,2.3943862E-2,6.592514E-3,-4.241937E-1,-4.7903183E-1,1.0289541E-1,-1.4106187E-1,2.4146517E-1],"split_indices":[2,9,0,9,0,3,5,0,5,3,4,3,4,5,3,0,1,4,3,0,3,0,0,5,9,0,9,8,3,9,5,9,9,0,0,3,6,0,0,9,0,5,0,0,3,0,5,9,0,0,0,5,0,5,3,9,1,0,0,0,9,0,0,0,0,0,0,0,0,0,0,0,0,0,0,0,0,0,0,0,0,0,0,0,0,0,0,0,0,0,0,0,0,0,0,0,0,0,0,0,0,0,0,0,0,0,0],"split_type":[0,0,0,0,0,0,0,0,0,0,0,0,0,0,0,0,0,0,0,0,0,0,0,0,0,0,0,0,0,0,0,0,0,0,0,0,0,0,0,0,0,0,0,0,0,0,0,0,0,0,0,0,0,0,0,0,0,0,0,0,0,0,0,0,0,0,0,0,0,0,0,0,0,0,0,0,0,0,0,0,0,0,0,0,0,0,0,0,0,0,0,0,0,0,0,0,0,0,0,0,0,0,0,0,0,0,0],"sum_hessian":[1.909393E3,9.6051117E2,9.488818E2,4.8264728E2,4.7786392E2,8.5172504E2,9.715672E1,4.4954504E2,3.3102238E1,1.5658448E1,4.6220547E2,1.6492352E2,6.868015E2,7.970182E1,1.7454908E1,2.5200409E2,1.9754095E2,3.0456163E1,2.6460721E0,1.5664785E0,1.409197E1,3.4019034E2,1.2201514E2,1.4329965E2,2.1623861E1,6.6319977E2,2.3601763E1,5.561047E1,2.4091349E1,5.4924636E0,1.1962443E1,2.4391005E2,8.094034E0,1.5625333E2,4.1287632E1,1.0969844E1,1.948632E1,1.0424436E0,1.6036285E0,6.300524E0,7.7914457E0,1.4674432E2,1.9344601E2,9.5349724E1,2.6665413E1,8.271094E1,6.058872E1,2.0581459E1,1.042402E0,5.5439083E1,6.077607E2,9.712347E0,1.3889417E1,3.2216763E1,2.3393707E1,1.5819745E1,8.271603E0,4.173964E0,1.3184999E0,1.1749387E0,1.0787505E1,3.0278432E0,2.408822E2,2.2077978E0,5.886236E0,3.1592527E1,1.246608E2,1.753212E1,2.3755514E1,4.592209E0,6.3776345E0,1.0862359E1,8.623962E0,2.431927E0,3.8685973E0,1.01082985E2,4.566133E1,3.722761E0,1.8972325E2,6.3091225E1,3.22585E1,1.6153688E1,1.0511723E1,5.1439365E1,3.1271576E1,6.531496E0,5.405722E1,8.075743E0,1.2505716E1,3.641961E1,1.9019476E1,4.2658978E1,5.651017E2,6.5675845E0,3.144762E0,2.2541447E0,1.1635272E1,1.7592571E1,1.4624192E1,1.4290295E1,9.103412E0,1.4934347E0,1.432631E1,1.9255433E0,6.34606E0,9.561572E0,1.2259327E0],"tree_param":{"num_deleted":"0","num_feature":"10","num_nodes":"107","size_leaf_vector":"1"}},{"base_weights":[-2.2886614E-3,-7.893258E-3,6.221218E-1,5.0358053E-2,-7.0111245E-2,2.464665E-1,9.067668E-1,2.890731E-2,5.270232E-1,-1.8394735E-1,-4.484409E-3,-2.2710162E-1,5.0859565E-1,3.339944E-1,3.633963E-1,-2.9964536E-1,3.549943E-2,6.565177E-1,-3.1190643E-2,-2.4379759E-1,1.9844744E-1,4.4259456E-1,-4.4489462E-2,2.63415E-1,1.22823425E-1,2.3390219E-1,-7.510259E-2,4.7417256E-1,1.9848343E-2,8.0168E-1,3.5293224E-1,-3.0665112E-1,3.5118255E-1,3.7387982E-1,-2.6171836E-1,5.356939E-1,-2.8877836E-1,1.9219278E-1,9.1375047E-1,1.5149452E-1,-1.3888143E-1,-2.413397E-1,6.2865794E-1,1.957683E-1,-2.7910796E-1,-5.638154E-2,1.6187495E-2,2.9258293E-1,1.7045425E-1,2.1333474E-1,-1.052192E-1,2.5098288E-1,-5.603033E-2,-4.2047724E-2,-1.19217515E-1,2.7952337E-1,5.7281516E-3,1.1981156E-1,-3.109268E-1,4.2754498E-1,1.0915318E-1,1.08663715E-1,-2.1269089E-2,-1.5936248E-2,-1.4039919E-1,2.2216752E-1,6.400998E-2],"categories":[],"categories_nodes":[],"categories_segments":[],"categories_sizes":[],"default_left":[0,0,0,0,0,0,0,0,0,0,0,0,0,0,0,0,0,0,0,0,0,0,0,0,0,0,0,0,0,0,0,0,0,0,0,0,0,0,0,0,0,0,0,0,0,0,0,0,0,0,0,0,0,0,0,0,0,0,0,0,0,0,0,0,0,0,0],"id":15,"left_children":[1,3,5,7,9,11,13,15,17,19,21,-1,23,-1,25,-1,27,29,31,33,35,37,39,-1,41,-1,-1,43,45,47,49,-1,51,-1,53,55,-1,57,59,61,63,-1,65,-1,-1,-1,-1,-1,-1,-1,-1,-1,-1,-1,-1,-1,-1,-1,-1,-1,-1,-1,-1,-1,-1,-1,-1],"loss_changes":[6.6256094E0,6.8027472E0,1.5774503E0,9.897497E0,6.779151E0,2.6560347E0,6.289358E-1,6.327878E0,3.0341606E0,7.643218E0,1.0334081E1,0E0,9.5307183E-1,0E0,1.2224677E0,0E0,6.333353E0,1.2103987E0,3.6954165E0,8.000315E0,1.8316368E1,5.423175E0,9.830055E0,0E0,2.7591062E0,0E0,0E0,8.570057E0,6.3397274E0,3.4322643E-1,3.4624496E0,0E0,2.0097435E0,0E0,4.641306E0,7.3214083E0,0E0,8.623908E0,4.0379124E0,8.125345E0,1.009091E1,0E0,1.25284195E-2,0E0,0E0,0E0,0E0,0E0,0E0,0E0,0E0,0E0,0E0,0E0,0E0,0E0,0E0,0E0,0E0,0E0,0E0,0E0,0E0,0E0,0E0,0E0,0E0],"parents":[2147483647,0,0,1,1,2,2,3,3,4,4,5,5,6,6,7,7,8,8,9,9,10,10,12,12,14,14,16,16,17,17,18,18,19,19,20,20,21,21,22,22,24,24,27,27,28,28,29,29,30,30,32,32,34,34,35,35,37,37,38,38,39,39,40,40,42,42],"right_children":[2,4,6,8,10,12,14,16,18,20,22,-1,24,-1,26,-1,28,30,32,34,36,38,40,-1,42,-1,-1,44,46,48,50,-1,52,-1,54,56,-1,58,60,62,64,-1,66,-1,-1,-1,-1,-1,-1,-1,-1,-1,-1,-1,-1,-1,-1,-1,-1,-1,-1,-1,-1,-1,-1,-1,-1],"split_conditions":[1.9335486E5,1E0,1E0,5.4E1,3.8E1,3.3E1,8.325305E4,2.2E1,6.5E1,1.7785256E5,1.437901E4,-2.2710162E-1,1E0,3.339944E-1,3E1,-2.9964536E-1,2.5E1,1.1945203E5,5.33E2,1.9E1,2E0,1.095818E4,1E0,2.63415E-1,4.1E1,2.3390219E-1,-7.510259E-2,1.3668966E5,3.224663E4,8.463564E4,7.11E2,-3.0665112E-1,6.21E2,3.7387982E-1,1E0,6.42E2,-2.8877836E-1,5.6E1,4.3E1,1.0369697E5,1.5433747E5,-2.413397E-1,1E0,1.957683E-1,-2.7910796E-1,-5.638154E-2,1.6187495E-2,2.9258293E-1,1.7045425E-1,2.1333474E-1,-1.052192E-1,2.5098288E-1,-5.603033E-2,-4.2047724E-2,-1.19217515E-1,2.7952337E-1,5.7281516E-3,1.1981156E-1,-3.109268E-1,4.2754498E-1,1.0915318E-1,1.08663715E-1,-2.1269089E-2,-1.5936248E-2,-1.4039919E-1,2.2216752E-1,6.400998E-2],"split_indices":[5,8,8,3,3,3,9,3,3,9,9,0,2,0,3,0,3,5,0,3,6,9,7,0,3,0,0,5,9,9,0,0,0,0,2,0,0,3,3,5,9,0,1,0,0,0,0,0,0,0,0,0,0,0,0,0,0,0,0,0,0,0,0,0,0,0,0],"split_type":[0,0,0,0,0,0,0,0,0,0,0,0,0,0,0,0,0,0,0,0,0,0,0,0,0,0,0,0,0,0,0,0,0,0,0,0,0,0,0,0,0,0,0,0,0,0,0,0,0,0,0,0,0,0,0,0,0,0,0,0,0,0,0,0,0,0,0],"sum_hessian":[1.8908615E3,1.875019E3,1.5842475E1,9.684772E2,9.065418E2,7.633788E0,8.208687E0,9.277859E2,4.0691303E1,3.308491E2,5.7569275E2,1.1900765E0,6.4437118E0,5.1877832E0,3.0209036E0,4.953849E0,9.2283203E2,3.2886242E1,7.8050575E0,2.8638776E2,4.4461323E1,4.645611E1,5.2923663E2,2.6396408E0,3.8040707E0,1.6389148E0,1.3819886E0,3.0781551E1,8.920505E2,2.1138132E1,1.1748111E1,1.7072434E0,6.097814E0,2.5888512E0,2.8379892E2,3.4870995E1,9.590327E0,3.1253798E1,1.520231E1,1.7184132E2,3.573953E2,1.1343049E0,2.669766E0,2.7787655E1,2.993896E0,1.2515252E2,7.6689795E2,1.0302154E1,1.0835979E1,7.7782025E0,3.969908E0,2.9135509E0,3.1842635E0,1.5075761E2,1.330413E2,1.9283625E1,1.5587371E1,2.7321558E1,3.93224E0,7.0522604E0,8.150048E0,8.791366E1,8.392766E1,2.8443814E2,7.2957146E1,1.4861072E0,1.1836586E0],"tree_param":{"num_deleted":"0","num_feature":"10","num_nodes":"67","size_leaf_vector":"1"}},{"base_weights":[-1.1888677E-3,-9.032056E-3,4.783909E-1,2.6055275E-2,-8.464675E-2,2.4516754E-1,6.699397E-1,-4.555929E-2,8.725435E-2,-2.1222246E-1,-9.828616E-3,4.687501E-2,2.3631054E-1,7.540887E-1,-2.5050767E-2,-8.1766434E-2,5.8624357E-1,2.0934649E-1,-7.814541E-2,-7.430376E-2,-3.8660088E-1,6.3942707E-1,-4.2831063E-2,3.2309148E-1,-2.0765787E-1,3.5999006E-1,8.4433675E-1,9.361544E-2,-2.0543039E-1,-2.1979766E-1,6.556605E-1,-4.8760787E-1,2.5460953E-1,1.7804481E-1,-2.3487315E-1,-4.824879E-1,7.509717E-2,5.6887414E-2,-5.4754734E-1,1.004451E0,-7.031645E-1,5.011814E-1,-7.2623596E-2,-2.3617685E-1,2.2539517E-1,2.9105452E-1,-6.799155E-1,2.0307544E-1,-4.36792E-2,4.9514722E-2,2.7646965E-1,-1.2418423E-2,2.0416865E-1,-1.1874847E-1,7.2512575E-3,1.02585934E-1,3.1406647E-1,8.530019E-2,-4.902759E-1,1.3569522E-2,1.6200244E-1,-1.0323589E-1,7.647303E-2,-2.9839814E-1,1.6348758E-1,4.657478E-1,-8.104391E-4,2.0330925E-1,-2.0803078E-1,-9.5295675E-2,-2.863802E-1,3.7839583E-1,-2.456322E-1,-2.9269516E-1,1.8629113E-2,2.7517453E-1,-1.4170767E-1,-7.512087E-2,2.042611E-3,4.9524058E-2,-1.7425907E-1,-1.0303199E-2,1.7198972E-1,-3.109332E-1,-3.1633552E-2],"categories":[],"categories_nodes":[],"categories_segments":[],"categories_sizes":[],"default_left":[0,0,0,0,0,0,0,0,0,0,0,0,0,0,0,0,0,0,0,0,0,0,0,0,0,0,0,0,0,0,0,0,0,0,0,0,0,0,0,0,0,0,0,0,0,0,0,0,0,0,0,0,0,0,0,0,0,0,0,0,0,0,0,0,0,0,0,0,0,0,0,0,0,0,0,0,0,0,0,0,0,0,0,0,0],"id":16,"left_children":[1,3,5,7,9,11,13,15,17,19,21,23,-1,25,-1,27,29,31,33,35,37,39,41,43,45,47,49,51,53,-1,55,-1,57,59,61,63,65,67,69,71,73,75,77,79,-1,81,83,-1,-1,-1,-1,-1,-1,-1,-1,-1,-1,-1,-1,-1,-1,-1,-1,-1,-1,-1,-1,-1,-1,-1,-1,-1,-1,-1,-1,-1,-1,-1,-1,-1,-1,-1,-1,-1,-1],"loss_changes":[7.050325E0,4.8947177E0,1.1831455E0,5.5277486E0,5.579016E0,1.5959363E0,1.0762987E0,1.3348151E1,1.3746975E1,5.168517E0,7.947138E0,9.2332983E-1,0E0,2.1093655E-1,0E0,1.1964662E1,3.3767567E0,3.29217E1,1.166518E1,7.4702587E0,6.8261843E0,9.499245E0,5.7523503E0,1.6699224E0,1.8340247E0,8.1011117E-1,4.2685318E-1,1.813125E1,1.4143984E1,0E0,3.3953314E0,0E0,2.1962275E1,5.2850704E0,9.721014E0,1.78012E1,1.0360843E1,1.2699663E1,6.2420235E0,7.832122E0,9.8299265E-1,7.9016094E0,4.735703E0,5.748849E-1,0E0,3.9431664E-1,6.829016E-1,0E0,0E0,0E0,0E0,0E0,0E0,0E0,0E0,0E0,0E0,0E0,0E0,0E0,0E0,0E0,0E0,0E0,0E0,0E0,0E0,0E0,0E0,0E0,0E0,0E0,0E0,0E0,0E0,0E0,0E0,0E0,0E0,0E0,0E0,0E0,0E0,0E0,0E0],"parents":[2147483647,0,0,1,1,2,2,3,3,4,4,5,5,6,6,7,7,8,8,9,9,10,10,11,11,13,13,15,15,16,16,17,17,18,18,19,19,20,20,21,21,22,22,23,23,24,24,25,25,26,26,27,27,28,28,30,30,32,32,33,33,34,34,35,35,36,36,37,37,38,38,39,39,40,40,41,41,42,42,43,43,45,45,46,46],"right_children":[2,4,6,8,10,12,14,16,18,20,22,24,-1,26,-1,28,30,32,34,36,38,40,42,44,46,48,50,52,54,-1,56,-1,58,60,62,64,66,68,70,72,74,76,78,80,-1,82,84,-1,-1,-1,-1,-1,-1,-1,-1,-1,-1,-1,-1,-1,-1,-1,-1,-1,-1,-1,-1,-1,-1,-1,-1,-1,-1,-1,-1,-1,-1,-1,-1,-1,-1,-1,-1,-1,-1],"split_conditions":[3E0,2E0,3.834002E4,1E0,4.492888E4,1.5184355E5,1.8897481E5,1.6940633E5,2E0,1E0,6.988109E4,8.079283E4,2.3631054E-1,3.6E1,-2.5050767E-2,8.331928E4,2.7E1,7.600157E4,8.044206E4,5.88E2,4.35274E4,1.1254258E5,1E0,6.702003E4,1E0,1E0,1.839193E4,1.6971934E5,1.2848691E5,-2.1979766E-1,1.1254258E5,-4.8760787E-1,1.7174069E5,4.911375E4,5.1E1,1.4958367E5,5.91E2,5E0,4.4E1,9E0,2E0,1.3399753E5,4E0,1.923341E4,2.2539517E-1,4.2E1,9.424816E4,2.0307544E-1,-4.36792E-2,4.9514722E-2,2.7646965E-1,-1.2418423E-2,2.0416865E-1,-1.1874847E-1,7.2512575E-3,1.02585934E-1,3.1406647E-1,8.530019E-2,-4.902759E-1,1.3569522E-2,1.6200244E-1,-1.0323589E-1,7.647303E-2,-2.9839814E-1,1.6348758E-1,4.657478E-1,-8.104391E-4,2.0330925E-1,-2.0803078E-1,-9.5295675E-2,-2.863802E-1,3.7839583E-1,-2.456322E-1,-2.9269516E-1,1.8629113E-2,2.7517453E-1,-1.4170767E-1,-7.512087E-2,2.042611E-3,4.9524058E-2,-1.7425907E-1,-1.0303199E-2,1.7198972E-1,-3.109332E-1,-3.1633552E-2],"split_indices":[6,6,5,1,5,9,9,5,1,2,5,9,0,3,0,5,3,5,5,0,9,9,4,9,8,8,9,9,5,0,9,0,5,5,3,9,0,4,3,4,1,9,4,9,0,3,9,0,0,0,0,0,0,0,0,0,0,0,0,0,0,0,0,0,0,0,0,0,0,0,0,0,0,0,0,0,0,0,0,0,0,0,0,0,0],"split_type":[0,0,0,0,0,0,0,0,0,0,0,0,0,0,0,0,0,0,0,0,0,0,0,0,0,0,0,0,0,0,0,0,0,0,0,0,0,0,0,0,0,0,0,0,0,0,0,0,0,0,0,0,0,0,0,0,0,0,0,0,0,0,0,0,0,0,0,0,0,0,0,0,0,0,0,0,0,0,0,0,0,0,0,0,0],"sum_hessian":[1.8722225E3,1.8430616E3,2.9160803E1,1.2593456E3,5.837162E2,1.417803E1,1.4982774E1,5.8041046E2,6.789351E2,2.1510114E2,3.6861502E2,1.1178695E1,2.9993355E0,1.3476749E1,1.5060239E0,5.497747E2,3.0635721E1,3.904519E2,2.884832E2,1.20903076E2,9.419807E1,1.6941936E1,3.516731E2,5.2318234E0,5.9468713E0,3.4406934E0,1.00360565E1,2.2744794E2,3.2232678E2,1.0540773E0,2.9581644E1,8.560216E0,3.818917E2,1.0944547E2,1.7903772E2,3.1797739E1,8.910533E1,2.5254845E1,6.894322E1,1.3518406E1,3.4235296E0,1.7437706E1,3.3423538E2,2.4632556E0,2.7685676E0,3.079043E0,2.8678284E0,1.9066396E0,1.5340538E0,1.344782E0,8.691275E0,1.856695E2,4.1778446E1,1.7581087E2,1.465159E2,1.7457407E1,1.2124237E1,3.768114E2,5.0802975E0,8.088995E1,2.8555517E1,1.4662935E2,3.2408375E1,2.1241138E1,1.0556601E1,3.5092595E0,8.559608E1,1.3873138E1,1.1381705E1,4.5197178E1,2.3746048E1,1.2119168E1,1.3992376E0,2.321862E0,1.1016676E0,1.22571335E1,5.1805725E0,1.02554146E2,2.3168123E2,1.379002E0,1.0842535E0,1.8381575E0,1.2408855E0,1.2733728E0,1.5944555E0],"tree_param":{"num_deleted":"0","num_feature":"10","num_nodes":"85","size_leaf_vector":"1"}},{"base_weights":[-1.4472635E-3,-7.6307016E-3,4.154725E-1,6.434416E-1,-1.1113329E-2,2.9072645E-1,2.542766E-1,1.4263058E-1,2.736329E-1,-7.095571E-3,-7.772703E-1,7.7251025E-2,5.4944545E-1,-2.5548646E-1,2.3894241E-1,-3.160705E-2,8.0876276E-2,-2.5571463E-1,-3.2171983E-1,-1.1145815E-1,2.8623533E-1,1.1350303E-1,7.294393E-1,1.54059E-2,-9.319938E-2,2.2533073E-1,5.042085E-3,-1.9332296E-1,1.6513501E-1,-5.87598E-1,2.2967674E-1,1.915399E-1,-1.453428E-1,1.847197E-1,-1.1300043E-1,1.1548644E-2,2.542086E-1,2.7638632E-1,2.5794613E-3,-2.4170298E-2,-2.2287767E-1,-2.5359793E-2,1.0159724E-1,2.4053857E-2,-9.594116E-2,8.64453E-2,-3.4046245E-1,-6.5207E-2,2.054486E-1,1.00469045E-1,-1.6090703E-1],"categories":[],"categories_nodes":[],"categories_segments":[],"categories_sizes":[],"default_left":[0,0,0,0,0,0,0,0,0,0,0,0,0,0,0,0,0,0,0,0,0,0,0,0,0,0,0,0,0,0,0,0,0,0,0,0,0,0,0,0,0,0,0,0,0,0,0,0,0,0,0],"id":17,"left_children":[1,3,5,7,9,11,-1,13,-1,15,17,19,21,-1,-1,23,25,27,-1,29,31,33,35,37,39,41,43,-1,-1,45,47,-1,49,-1,-1,-1,-1,-1,-1,-1,-1,-1,-1,-1,-1,-1,-1,-1,-1,-1,-1],"loss_changes":[4.7465863E0,4.120411E0,1.2040601E0,1.170866E0,5.551879E0,1.1948404E0,0E0,3.6435246E0,0E0,3.8774102E0,1.1740494E0,5.618622E-1,6.990771E-1,0E0,0E0,4.0730247E0,4.2915688E0,1.8316238E0,0E0,1.3988578E0,1.10472E0,1.240306E0,5.2698684E-1,4.9151287E0,4.9368124E0,4.7649035E0,6.322631E0,0E0,0E0,2.0183766E0,1.2175305E0,0E0,8.9431494E-1,0E0,0E0,0E0,0E0,0E0,0E0,0E0,0E0,0E0,0E0,0E0,0E0,0E0,0E0,0E0,0E0,0E0,0E0],"parents":[2147483647,0,0,1,1,2,2,3,3,4,4,5,5,7,7,9,9,10,10,11,11,12,12,15,15,16,16,17,17,19,19,20,20,21,21,22,22,23,23,24,24,25,25,26,26,29,29,30,30,32,32],"right_children":[2,4,6,8,10,12,-1,14,-1,16,18,20,22,-1,-1,24,26,28,-1,30,32,34,36,38,40,42,44,-1,-1,46,48,-1,50,-1,-1,-1,-1,-1,-1,-1,-1,-1,-1,-1,-1,-1,-1,-1,-1,-1,-1],"split_conditions":[3E0,4.14E2,4E0,1.2089307E5,7.2E1,8.591552E4,2.542766E-1,1.0256223E5,2.736329E-1,4.7E1,6.702003E4,2E0,3.6E1,-2.5548646E-1,2.3894241E-1,1E0,1E0,6.548186E4,-3.2171983E-1,8.325305E4,8.325305E4,1E0,2.088196E4,7.3888E2,8.5E2,3E0,1.371382E5,-1.9332296E-1,1.6513501E-1,3.869134E4,6E0,1.915399E-1,1E0,1.847197E-1,-1.1300043E-1,1.1548644E-2,2.542086E-1,2.7638632E-1,2.5794613E-3,-2.4170298E-2,-2.2287767E-1,-2.5359793E-2,1.0159724E-1,2.4053857E-2,-9.594116E-2,8.64453E-2,-3.4046245E-1,-6.5207E-2,2.054486E-1,1.00469045E-1,-1.6090703E-1],"split_indices":[6,0,6,9,3,5,0,5,0,3,9,1,3,0,0,8,7,9,0,9,9,8,9,9,0,4,5,0,0,9,4,0,8,0,0,0,0,0,0,0,0,0,0,0,0,0,0,0,0,0,0],"split_type":[0,0,0,0,0,0,0,0,0,0,0,0,0,0,0,0,0,0,0,0,0,0,0,0,0,0,0,0,0,0,0,0,0,0,0,0,0,0,0,0,0,0,0,0,0,0,0,0,0,0,0],"sum_hessian":[1.8389612E3,1.813053E3,2.590813E1,8.668837E0,1.8043842E3,2.1402359E1,4.505772E0,3.56129E0,5.1075463E0,1.7959752E3,8.408905E0,1.2438026E1,8.964333E0,1.2928561E0,2.2684338E0,1.4051116E3,3.9086368E2,3.7132514E0,4.6956534E0,6.7812996E0,5.6567273E0,3.0961344E0,5.8681984E0,7.972935E2,6.078181E2,1.3387587E2,2.569878E2,2.6406837E0,1.0725677E0,2.528984E0,4.2523155E0,2.8507345E0,2.8059926E0,1.4027346E0,1.6933997E0,1.0488895E0,4.8193088E0,4.9450026E0,7.923485E2,5.973291E2,1.0489037E1,3.5918873E1,9.7957E1,2.0932397E2,4.7663826E1,1.1547086E0,1.3742754E0,2.4088674E0,1.8434482E0,1.3237242E0,1.4822685E0],"tree_param":{"num_deleted":"0","num_feature":"10","num_nodes":"51","size_leaf_vector":"1"}},{"base_weights":[-4.165142E-4,-4.760214E-3,5.1884484E-1,2.5730706E-3,-2.8178933E-1,9.777405E-2,7.6710695E-1,-2.506236E-3,3.8934243E-1,-5.428465E-1,1.3766792E-1,1.9575474E-1,-2.9725757E-1,2.7998534E-1,2.8662875E-1,1.0497353E-2,-1.386735E-1,1.8041448E-1,7.649487E-1,1.8801983E-2,-7.1403646E-1,5.546379E-1,-7.3185855E-1,1.2787315E-1,-6.145002E-1,2.0845984E-1,-8.989171E-2,1.8109151E-3,3.5320327E-1,-4.4102675E-1,-2.661235E-2,2.922829E-1,-1.8608674E-1,9.6370146E-2,2.5520638E-1,4.3195045E-1,-2.4131332E-1,2.0558423E-1,-9.0105855E-1,-2.2152567E-1,8.802368E-1,-5.964963E-2,-2.7480242E-1,-2.4765496E-1,-2.9303119E-2,1.7528592E-2,-1.6727025E-2,-7.386265E-2,2.1338093E-1,-1.7216524E-1,2.8419143E-1,1.4926672E-1,-4.683338E-2,1.8490687E-1,-1.5273601E-2,-2.3470658E-1,1.2075597E-1,-6.80153E-2,2.0934545E-1,-2.4805734E-1,2.565733E-1,1.3661022E-1,-3.020814E-1,4.0783644E-1,1.6006682E-2],"categories":[],"categories_nodes":[],"categories_segments":[],"categories_sizes":[],"default_left":[0,0,0,0,0,0,0,0,0,0,0,0,0,0,0,0,0,0,0,0,0,0,0,0,0,0,0,0,0,0,0,0,0,0,0,0,0,0,0,0,0,0,0,0,0,0,0,0,0,0,0,0,0,0,0,0,0,0,0,0,0,0,0,0,0],"id":18,"left_children":[1,3,5,7,9,11,13,15,17,19,21,-1,23,25,-1,27,29,31,33,35,37,39,41,-1,43,-1,-1,45,47,49,51,53,55,-1,-1,57,-1,59,61,-1,63,-1,-1,-1,-1,-1,-1,-1,-1,-1,-1,-1,-1,-1,-1,-1,-1,-1,-1,-1,-1,-1,-1,-1,-1],"loss_changes":[4.125501E0,3.6855278E0,1.511178E0,3.4742856E0,5.197729E0,1.6784437E0,5.9475994E-1,3.0932024E0,1.6609614E0,2.805519E0,7.202223E0,0E0,1.3277564E0,1.178575E0,0E0,4.7469506E0,5.1478815E0,7.1199316E-1,2.670765E-2,2.9858768E0,4.01742E0,6.223578E0,4.565351E-1,0E0,3.160863E-1,0E0,0E0,5.0760927E0,8.635536E0,8.127136E0,7.6915283E0,1.4413567E0,1.8457662E0,0E0,0E0,1.1767025E0,0E0,3.7789927E0,3.1444197E0,0E0,4.2988157E0,0E0,0E0,0E0,0E0,0E0,0E0,0E0,0E0,0E0,0E0,0E0,0E0,0E0,0E0,0E0,0E0,0E0,0E0,0E0,0E0,0E0,0E0,0E0,0E0],"parents":[2147483647,0,0,1,1,2,2,3,3,4,4,5,5,6,6,7,7,8,8,9,9,10,10,12,12,13,13,15,15,16,16,17,17,18,18,19,19,20,20,21,21,22,22,24,24,27,27,28,28,29,29,30,30,31,31,32,32,35,35,37,37,38,38,40,40],"right_children":[2,4,6,8,10,12,14,16,18,20,22,-1,24,26,-1,28,30,32,34,36,38,40,42,-1,44,-1,-1,46,48,50,52,54,56,-1,-1,58,-1,60,62,-1,64,-1,-1,-1,-1,-1,-1,-1,-1,-1,-1,-1,-1,-1,-1,-1,-1,-1,-1,-1,-1,-1,-1,-1,-1],"split_conditions":[1.9335486E5,6.4E1,6.41E2,3E0,1.2139998E5,5.109956E4,3.9E1,1.8062669E5,4.3E1,1E0,1.4205106E5,1.9575474E-1,2.4E1,3E1,2.8662875E-1,1.7729592E5,1.86281E5,4.1E1,5.69E2,9E0,5.3E2,8.541254E4,8.541254E4,1.2787315E-1,3.8E1,2.0845984E-1,-8.989171E-2,1E0,1.007495E5,1.6288873E5,5.54E2,1E0,1E0,9.6370146E-2,2.5520638E-1,3E0,-2.4131332E-1,9.450435E4,1.358993E4,-2.2152567E-1,1.2168119E5,-5.964963E-2,-2.7480242E-1,-2.4765496E-1,-2.9303119E-2,1.7528592E-2,-1.6727025E-2,-7.386265E-2,2.1338093E-1,-1.7216524E-1,2.8419143E-1,1.4926672E-1,-4.683338E-2,1.8490687E-1,-1.5273601E-2,-2.3470658E-1,1.2075597E-1,-6.80153E-2,2.0934545E-1,-2.4805734E-1,2.565733E-1,1.3661022E-1,-3.020814E-1,4.0783644E-1,1.6006682E-2],"split_indices":[5,3,0,6,5,9,3,9,3,8,5,0,3,3,0,9,9,3,0,4,0,9,9,0,3,0,0,2,5,5,0,8,8,0,0,4,0,5,9,0,9,0,0,0,0,0,0,0,0,0,0,0,0,0,0,0,0,0,0,0,0,0,0,0,0],"split_type":[0,0,0,0,0,0,0,0,0,0,0,0,0,0,0,0,0,0,0,0,0,0,0,0,0,0,0,0,0,0,0,0,0,0,0,0,0,0,0,0,0,0,0,0,0,0,0,0,0,0,0,0,0,0,0,0,0,0,0,0,0,0,0,0,0],"sum_hessian":[1.8269774E3,1.8128038E3,1.4173547E1,1.7670195E3,4.5784363E1,5.7740936E0,8.399453E0,1.7450953E3,2.1924206E1,2.8039366E1,1.7744995E1,2.1304722E0,3.6436217E0,3.035206E0,5.3642473E0,1.5938135E3,1.5128177E2,1.5039138E1,6.8850684E0,6.757897E0,2.128147E1,1.22383795E1,5.506616E0,1.0059255E0,2.6376963E0,1.6531211E0,1.3820848E0,1.5553948E3,3.841872E1,4.011406E1,1.1116771E2,1.1677331E1,3.3618064E0,1.8836251E0,5.0014434E0,4.8160295E0,1.9418672E0,3.5797846E0,1.7701685E1,2.2067587E0,1.003162E1,1.947949E0,3.5586672E0,1.4488486E0,1.1888477E0,7.841597E2,7.712351E2,1.4484201E1,2.3934519E1,3.7145985E1,2.9680746E0,2.1460531E1,8.970718E1,5.596609E0,6.0807223E0,1.5065156E0,1.8552908E0,1.4272856E0,3.3887439E0,1.2772384E0,2.3025463E0,1.042707E0,1.6658978E1,5.9431815E0,4.0884385E0],"tree_param":{"num_deleted":"0","num_feature":"10","num_nodes":"65","size_leaf_vector":"1"}},{"base_weights":[3.4438807E-4,-4.3951295E-2,3.913512E-2,-2.6894253E-1,-1.00474255E-2,5.5791307E-2,-5.435171E-1,-1.4066273E-1,-8.516695E-1,-2.6287155E-2,6.3934654E-1,-2.9550287E-1,6.198136E-2,2.0568638E-1,-9.525661E-1,-7.257662E-1,1.05126455E-1,-1.1093637E0,5.216915E-1,-7.3350504E-2,1.7151046E-1,7.652229E-1,-1.5705709E-1,2.400753E-1,2.757232E-2,-5.7383806E-1,7.435045E-1,-2.5525606E-1,-5.0214416E-1,-8.7489027E-1,3.3710885E-1,5.5287355E-1,-3.652078E-1,-1.274338E0,-1.1523679E-1,2.6534525E-1,1.6405998E-2,-5.3749602E-2,-8.6014336E-1,4.2289034E-1,-1.8682666E-1,2.981681E-1,1.4034005E0,3.9433584E-1,-1.5983403E-1,3.9024193E-2,-6.102394E-1,3.3168057E-1,-4.4585407E-1,-3.8219374E-2,1.0539356E0,-1.1056674E0,5.7199484E-1,4.4300348E-2,-2.982661E-1,2.4221113E-1,-2.6154762E-2,3.4285602E-1,-6.1773747E-2,3.5323423E-1,-1.885681E-1,-4.4226006E-1,-2.2465913E-1,-2.3796706E-1,2.3587768E-1,-2.12886E-2,1.3288948E-1,-3.6506063E-1,1.6970891E-1,2.55538E-1,3.3201963E-2,7.046426E-2,-1.318608E-1,3.937271E-1,1.8067302E-2,5.703912E-1,2.1846221E-1,1.429883E-1,-5.673067E-2,-1.05111636E-1,3.2701883E-1,-6.4555295E-2,2.024135E-2,8.174718E-2,-4.016576E-1,1.4201723E-1,4.1838307E-3,9.249365E-2,3.957248E-1,-4.6310088E-1,5.1714785E-2,2.4736649E-1,1.404782E-2],"categories":[],"categories_nodes":[],"categories_segments":[],"categories_sizes":[],"default_left":[0,0,0,0,0,